<?xml version="1.0"?>
<opencv_storage>
<opencv_ml_svm>
  <format>3</format>
  <svmType>C_SVC</svmType>
  <kernel>
    <type>LINEAR</type></kernel>
  <C>10.</C>
  <term_criteria><epsilon>1.0000000000000000e-02</epsilon></term_criteria>
  <var_count>6000</var_count>
  <class_count>2</class_count>
  <class_labels type_id="opencv-matrix">
    <rows>2</rows>
    <cols>1</cols>
    <dt>i</dt>
    <data>
      0 1</data></class_labels>
  <sv_total>1</sv_total>
  <support_vectors>
    <_>
      -2.78111452e-06 -2.78111452e-06 -2.78111452e-06 -2.78111452e-06
      -2.78111452e-06 -2.78111452e-06 -2.51376127e-06 6.92451431e-06
      8.30707813e-06 -3.69680711e-05 -2.26297234e-05 -7.33306297e-06
      -2.42978222e-05 -9.07766444e-05 -3.00485626e-05 -8.03189664e-07
      -8.03189664e-07 -8.03189664e-07 -9.75279931e-07 -1.28504246e-06
      -3.38900395e-06 -7.04921194e-06 -9.25449513e-06 -9.80429377e-06
      -9.93958838e-06 -9.95891605e-06 -9.82523943e-06 -1.44893320e-05
      -6.83302860e-05 -5.00090282e-05 9.37176810e-05 -2.68849999e-06
      -5.23911758e-08 1.93578603e-06 1.62362528e-06 1.67481119e-07
      -1.26967961e-06 -1.78894425e-06 -5.55471388e-06 -9.67326741e-06
      -9.90129865e-06 -1.13019187e-05 -1.24484250e-05 -1.27800404e-05
      -1.28690272e-05 -3.82827056e-06 5.47552045e-05 6.65006701e-06
      5.24507996e-05 -4.40609292e-05 -3.17565500e-05 -1.15331495e-05
      -8.63536172e-07 -2.86986669e-05 -8.46382227e-06 -2.64504752e-06
      -7.89082333e-06 -1.30235730e-05 -1.75737168e-05 -1.82124222e-05
      -1.84137207e-05 -1.77725633e-05 -1.78215760e-05 -1.82126842e-05
      -1.81971136e-05 -1.82296280e-05 -1.82413260e-05 -1.80275056e-05
      -1.77789680e-05 -1.75909281e-05 -1.75514087e-05 -1.73328572e-05
      -1.74945508e-05 -1.50170372e-05 -1.66839181e-05 -1.56533479e-05
      -1.64933444e-05 -1.43207508e-05 -7.43696146e-05 -1.63746081e-05
      -1.13739661e-05 -9.60491452e-05 -1.75999216e-04 -1.28881977e-04
      -9.27244309e-06 -3.78102923e-05 -3.18793027e-05 -2.07596549e-05
      -1.32286978e-05 -1.06878551e-05 1.42263934e-05 4.17566807e-05
      -5.50786099e-05 4.02212208e-05 -5.44096183e-05 -4.72583924e-05
      -1.09294524e-05 -1.01091409e-05 -3.13374294e-05 -2.09392692e-05
      -8.07620836e-06 -1.34989807e-06 -1.27722160e-06 -1.12931525e-06
      3.12784778e-06 4.01640636e-06 3.40749580e-06 1.54067993e-06
      2.32958428e-07 1.19646415e-07 -2.92228520e-07 -1.97680464e-07
      -2.00093794e-07 -2.00093794e-07 -3.14210268e-07 -1.17008381e-06
      -2.14007378e-06 -2.51913752e-06 -1.40300642e-06 -4.33366552e-07
      -1.00430975e-06 -1.00430975e-06 -1.00430975e-06 -1.00430975e-06
      -1.62275694e-06 -1.16441765e-06 -6.66550420e-07 -8.18597812e-08
      6.52064500e-07 -2.57946272e-06 -6.37639744e-07 -2.24194409e-05
      -9.94294096e-05 -1.86330784e-04 -5.06444230e-05 9.39196980e-07
      4.91762250e-07 -5.75197419e-07 -2.65366157e-06 -5.78994195e-06
      -7.65847926e-06 -8.05573745e-06 -8.20728019e-06 -8.31860598e-06
      -8.36864365e-06 -8.33528520e-06 -1.02453514e-05 -1.15184048e-04
      -8.84552719e-05 -2.97843671e-05 -9.83028144e-07 3.69715917e-06
      3.18814978e-06 2.72428406e-06 1.86540387e-06 3.25115337e-07
      -1.04168953e-06 -2.28664680e-06 -2.30720752e-06 -2.75879142e-06
      -3.62865967e-06 -5.35353092e-06 -9.01785370e-06 -1.08772529e-05
      -1.04053279e-05 -1.09750881e-05 -1.20488485e-05 -1.21854173e-05
      -1.25550941e-05 -1.86392554e-05 -3.62692554e-05 -4.35483016e-05
      -1.11032779e-04 -9.32079638e-05 -6.63732644e-05 -2.91678898e-05
      -1.03052953e-05 -2.26581892e-06 1.10542953e-06 -1.63535151e-05
      -1.39131071e-05 -1.09740186e-05 -1.13420292e-05 -1.66103891e-05
      -1.60800810e-05 -1.58915245e-05 -1.65705060e-05 -1.67688286e-05
      -1.65023794e-05 -1.68288625e-05 -1.78564605e-05 -1.85802874e-05
      -1.88284157e-05 -1.87908572e-05 -1.88243375e-05 -1.88065587e-05
      -1.86049565e-05 -1.84137116e-05 -1.84136461e-05 -1.80762199e-05
      -1.54190166e-05 -1.45889953e-05 -2.15826585e-05 -3.32620912e-05
      -1.72228065e-05 -8.43422822e-05 -4.27860650e-05 -4.75169327e-05
      -6.69633009e-05 5.38677814e-05 1.04123486e-04 6.22624138e-05
      -8.54871614e-05 -3.25550864e-05 -6.25950634e-05 -2.49195728e-05
      2.44666280e-05 -6.18470294e-05 -1.24403072e-04 -1.17258634e-04
      -1.22607016e-04 -1.00450896e-04 -3.31695956e-05 -1.44890955e-05
      3.72969180e-06 -1.82001770e-06 3.59858586e-06 -2.19337312e-06
      -1.45109143e-05 -8.37226798e-06 -2.95752898e-06 1.21175640e-06
      1.55873454e-06 1.45268757e-06 1.57671093e-06 1.57671093e-06
      9.49070284e-07 -3.44249713e-07 -8.19735021e-07 7.78723461e-07
      2.58543167e-07 2.58543167e-07 2.58543167e-07 7.93249683e-07
      -6.30183877e-07 -6.32098136e-06 -2.07872017e-06 4.46739796e-06
      7.67213805e-06 2.54604838e-05 1.61673961e-06 -1.08585104e-04
      -1.58189850e-05 2.23646794e-06 1.51368886e-06 -3.06790469e-07
      -2.77308436e-06 -5.33989305e-06 -7.55383053e-06 -7.82147890e-06
      -7.48255616e-06 -8.31823854e-06 -7.85533484e-06 -8.35420815e-06
      -2.45434603e-06 5.13177474e-06 -1.79896451e-05 -2.81406610e-05
      -5.93226287e-06 2.16872741e-06 2.13670887e-06 4.42001101e-06
      3.63193226e-06 3.03818888e-06 1.81535358e-06 -4.15097645e-07
      -1.07228630e-06 -2.29675857e-06 -2.58440355e-06 -2.68447775e-06
      -2.62610115e-06 -2.67867426e-06 -3.29058344e-06 -4.50115022e-06
      -4.00249792e-06 -5.01719842e-06 -6.59425905e-06 -8.90577030e-06
      -1.05726567e-05 -1.09202529e-05 -1.08979793e-05 -1.24867511e-05
      -1.70474959e-05 -1.65619003e-05 -1.71052416e-05 -3.18519196e-05
      -4.21671357e-05 -7.35953290e-05 -3.63603940e-05 -5.28262353e-05
      1.09748489e-05 3.81185282e-06 1.73360586e-05 -1.16978272e-05
      -9.08242782e-06 3.88762783e-06 -1.15440298e-05 -1.20156519e-05
      -1.06302514e-05 -9.00405212e-06 -1.37338020e-05 -1.81616779e-05
      -1.80524330e-05 -1.78235441e-05 -1.80756142e-05 -1.71624652e-05
      -1.76790400e-05 -1.81275263e-05 -1.76707545e-05 -1.68807619e-05
      -1.52836565e-05 -1.43149291e-05 -1.41260043e-05 -1.30455774e-05
      -1.23442142e-05 -1.08764552e-05 -6.03587659e-06 -7.26382814e-06
      -6.17719706e-05 -4.69415954e-06 1.47892533e-05 -6.33749551e-06
      -4.22468383e-06 -5.73835405e-06 -4.63934020e-06 -2.34850972e-06
      -4.36421374e-07 -5.39193206e-06 -3.22971609e-05 -6.04908382e-05
      -6.29254209e-05 -8.87567076e-05 9.91786351e-07 -4.70020859e-05
      -4.55264017e-05 -1.78095543e-05 -4.09831737e-05 8.74638408e-06
      -5.35274148e-06 -4.32870547e-05 -1.89818802e-05 -1.69795858e-05
      -5.07491768e-06 -5.55151189e-07 1.89252046e-06 2.96600251e-06
      2.66838902e-06 2.19290382e-06 1.47967592e-06 1.95622783e-06
      2.58543167e-07 -3.59903993e-07 -6.49443973e-06 -5.00407441e-06
      -5.29457384e-06 -2.13927688e-05 2.82403523e-08 1.36380254e-06
      1.73742810e-05 7.25669161e-05 5.10505888e-05 9.23130938e-06
      -9.91934570e-08 4.84682005e-07 -2.77372465e-06 -7.88450689e-06
      -1.00677362e-05 -1.06536600e-05 -1.10778119e-05 -1.02152135e-05
      -1.01498317e-05 -1.11752461e-05 -1.20630611e-05 8.39114455e-06
      7.17722651e-05 1.27105726e-04 -1.04599876e-05 -3.92657557e-06
      -1.92342600e-06 -3.20711678e-07 6.58556246e-07 1.40714917e-06
      7.60050796e-07 1.48260528e-06 4.98115469e-07 -2.77952563e-06
      -2.94992333e-06 -3.22083497e-06 -3.34015863e-06 -3.34015863e-06
      -3.34015863e-06 -3.34015863e-06 -3.34015863e-06 -3.34313222e-06
      -3.34610559e-06 -3.34461902e-06 -3.34907918e-06 -4.00577301e-06
      -5.35091385e-06 -5.95656411e-06 -6.30378372e-06 -1.09538696e-05
      -1.02081212e-05 -1.15241091e-05 -1.07825981e-05 -1.14256882e-05
      -1.26124787e-05 -1.34373040e-05 -1.67560720e-05 -2.23326583e-06
      -1.78089595e-05 -7.40232099e-06 -1.79382312e-06 -3.34254291e-05
      -6.36219702e-05 -1.77838192e-05 -3.87621185e-05 -2.00166760e-05
      -2.58124801e-05 1.46439852e-05 2.65430681e-05 -2.09109498e-06
      -7.27517772e-06 -1.05281852e-05 -1.53796536e-05 -4.51612505e-06
      -9.62006652e-06 -1.50163214e-05 -1.54821919e-05 -1.49415291e-05
      -1.57245977e-05 -1.54026347e-05 -1.41192195e-05 -1.38598289e-05
      -1.15935982e-05 -1.06036259e-05 -9.22833351e-06 -9.73774240e-06
      -9.20896036e-06 -7.78577123e-06 -5.22203709e-06 -3.95431334e-06
      -3.64814673e-06 -3.74956608e-06 -3.56060627e-06 -3.39616554e-06
      -3.46306342e-06 -2.10204075e-06 -3.13983008e-07 5.59007333e-07
      2.72815100e-07 -5.73653381e-07 -1.13836768e-06 -4.31133849e-05
      4.93533753e-06 -1.70995099e-05 -1.58623061e-05 3.89510024e-05
      2.91504221e-05 -8.24767631e-05 -6.06577532e-06 -5.17953449e-05
      -2.81917546e-05 -1.42230147e-05 -8.79562867e-06 1.07201174e-06
      2.72830175e-06 2.83956388e-06 2.72544730e-06 3.05726462e-06
      1.99633951e-06 8.69648488e-07 -2.97538299e-05 -5.28053497e-05
      -3.41959894e-05 -8.16355350e-06 4.81842835e-06 1.80320762e-06
      2.36764549e-06 1.70039402e-06 -1.01640046e-06 -1.43348768e-06
      -3.37295978e-06 -6.20262381e-06 -1.00775560e-05 -1.17306708e-05
      -1.23998143e-05 -1.25715469e-05 -1.29026494e-05 -1.28398124e-05
      -1.33786061e-05 4.49441495e-06 5.67836693e-08 1.15815128e-04
      1.38369098e-04 5.67120878e-05 -1.14487989e-06 -1.26670261e-06
      -1.45467573e-06 -2.14555280e-06 -2.39624410e-06 -2.48351057e-06
      -3.45558533e-06 -3.23266204e-06 -3.07295340e-06 -4.03625472e-06
      -4.08905998e-06 -4.08905998e-06 -4.08905998e-06 -4.08905998e-06
      -4.08905998e-06 -4.08905998e-06 -4.08905998e-06 -4.08905998e-06
      -4.08905998e-06 -4.08905998e-06 -4.08905998e-06 -4.08905998e-06
      -4.22419225e-06 -5.00097531e-06 -6.26828842e-06 -7.79470247e-06
      -7.27523548e-06 -7.91899402e-06 -7.56247391e-06 -7.95125743e-06
      -8.65498805e-06 -9.52741084e-06 -9.51047696e-06 -1.24783410e-05
      -1.30805975e-05 -1.26757232e-05 -1.28648680e-05 -1.20909999e-05
      -1.90722731e-05 -2.59893077e-05 -1.82245967e-05 -2.16519620e-05
      -5.28134551e-05 -3.22775918e-06 6.25602988e-05 4.37147828e-05
      -2.17817228e-06 -1.76779668e-05 -4.24948012e-05 -1.30852004e-05
      6.24625818e-06 -2.60062757e-06 -6.33024092e-06 -1.32665800e-05
      -1.21790372e-05 -1.17492282e-05 -1.25107263e-05 -1.85161534e-05
      -1.14593422e-05 -1.01196165e-05 -9.49325022e-06 -7.92175342e-06
      -5.87519253e-06 -4.04690581e-06 -2.29785496e-06 -3.21031666e-06
      -3.42587668e-06 -3.77298488e-06 -3.95610050e-06 -3.83115457e-06
      -3.81615973e-06 -3.40151087e-06 -2.70523878e-06 -9.06089724e-07
      -3.43462943e-07 -4.89616880e-08 -1.79386561e-07 -4.17220576e-07
      1.12152202e-06 1.68995439e-06 3.27590510e-06 4.70005671e-06
      2.74240097e-06 2.78474249e-06 3.57770568e-06 2.69057477e-06
      2.86465784e-05 2.43615682e-06 -4.17711635e-05 -1.52967004e-05
      1.28596741e-06 2.92609093e-06 2.83956388e-06 3.12379143e-06
      4.32249135e-06 2.43793384e-05 5.09995043e-05 -5.19407467e-06
      -3.26318841e-05 1.13438755e-05 2.13554977e-05 -1.85560373e-06
      -2.49612140e-06 -2.29473403e-06 -3.46087700e-06 -7.54000530e-06
      -1.15872372e-05 -1.25866381e-05 -1.31000143e-05 -1.30649623e-05
      -1.32126115e-05 -1.32258929e-05 -1.67291091e-05 -1.69281557e-05
      -1.14387913e-05 6.73514514e-05 6.24994645e-05 2.31160084e-05
      -1.48896208e-06 -9.39906158e-07 -1.08968857e-06 -1.95725625e-06
      -2.74169179e-06 -3.55987027e-06 -3.55987027e-06 -3.96873202e-06
      -5.26380654e-06 -5.60154649e-06 -5.60154649e-06 -5.60154649e-06
      -5.60154649e-06 -5.60154649e-06 -5.60154649e-06 -5.60154649e-06
      -5.60154649e-06 -5.60154649e-06 -5.60154649e-06 -5.60154649e-06
      -5.60154649e-06 -5.60154649e-06 -5.60154649e-06 -5.60154649e-06
      -5.68965243e-06 -6.18892000e-06 -7.01124281e-06 -6.98408121e-06
      -6.70515692e-06 -6.54457199e-06 -6.14127839e-06 -6.28479347e-06
      -5.90846003e-06 -5.58270403e-06 -5.69598342e-06 -5.84291865e-06
      -5.92474635e-06 -5.69524082e-06 -5.33479715e-06 -5.13739496e-06
      -4.89882450e-06 -6.83026201e-06 -5.34122773e-06 -8.00625912e-06
      -8.32803198e-06 -9.16268164e-06 -3.11488475e-06 -8.94300683e-06
      -1.22867950e-05 -8.67082326e-06 -1.51239456e-05 -4.84326411e-05
      -3.64930856e-05 -2.38758166e-05 -1.65650963e-05 -2.37944096e-05
      -1.71935753e-05 -5.74607111e-06 -1.25817123e-05 -3.33127064e-05
      -8.40706798e-06 -5.18621209e-06 -8.83535722e-06 -5.68887572e-06
      -1.47860976e-06 3.02363610e-08 -4.86601380e-07 -1.51485835e-06
      -2.68657550e-06 -3.06698666e-06 -3.67957318e-06 -3.97926851e-06
      -4.02377736e-06 -3.62877927e-06 -2.88267142e-06 -2.08305482e-06
      -1.59102353e-06 -9.48880825e-07 -4.23491400e-07 -2.90855070e-07
      -2.04952173e-07 1.90679250e-09 1.18265359e-06 2.45478213e-06
      3.45734361e-06 3.87025966e-06 5.23098106e-06 6.04286924e-06
      6.16077750e-06 -2.24017258e-05 -4.67644313e-05 -3.39767503e-05
      -1.95096309e-05 -1.34185086e-06 2.92306618e-06 3.20933850e-06
      -2.91093766e-05 2.28205918e-05 3.79684680e-05 1.24958306e-05
      2.28644831e-06 3.53824435e-05 3.96291907e-05 -3.86114016e-06
      -3.55192788e-06 -3.86680495e-06 -8.01716214e-06 -1.25077413e-05
      -1.34051816e-05 -1.34613383e-05 -1.32772957e-05 -1.29038990e-05
      -1.46345328e-05 -2.56503536e-05 -5.05357093e-05 -3.78464938e-05
      6.98373560e-06 8.99598399e-06 -7.61807755e-08 -1.94775475e-06
      -1.11241206e-06 -8.88122202e-07 -1.47581045e-06 -3.14254430e-06
      -3.91386493e-06 -4.05900482e-06 -4.05900482e-06 -5.18507295e-06
      -6.64413437e-06 -7.05529555e-06 -7.05529555e-06 -7.05529555e-06
      -7.01757790e-06 -7.05529555e-06 -7.05529555e-06 -7.05529555e-06
      -7.05529555e-06 -7.05529555e-06 -7.05529555e-06 -7.05529555e-06
      -7.05529555e-06 -7.05529555e-06 -6.91286641e-06 -6.55976010e-06
      -6.45726368e-06 -6.38612710e-06 -5.93327286e-06 -5.74855130e-06
      -5.82555003e-06 -5.22297159e-06 -3.53934979e-06 -4.03363128e-06
      -4.54976043e-06 -3.57482554e-06 -3.69408986e-06 -3.33186836e-06
      -2.53707549e-06 -2.93212838e-06 -2.61098035e-06 -1.75236164e-06
      -2.23420898e-06 -1.43587340e-06 -1.42084684e-06 -1.37108145e-06
      -7.16142210e-07 -2.16827388e-07 -2.35626416e-07 -4.96271355e-07
      -1.44328703e-06 -8.96912582e-07 -7.34243997e-07 -1.99648230e-06
      -8.38244432e-06 -1.06730495e-05 -3.58819161e-05 -1.15251532e-05
      -5.40412439e-05 -1.97086574e-05 -2.59525750e-05 -1.21877956e-05
      -2.34533127e-05 -3.97994427e-06 -5.71327701e-06 -1.17302102e-06
      2.16815451e-07 8.23399432e-07 7.93559650e-07 -4.71627146e-08
      -1.21823041e-06 -1.62136450e-06 -3.07000164e-06 -3.30235298e-06
      -3.75375521e-06 -3.71459510e-06 -3.01433738e-06 -2.44378452e-06
      -2.41663543e-06 -1.99965984e-06 -7.07034928e-07 -2.98398675e-07
      -2.98398675e-07 -2.98398675e-07 -2.98398675e-07 2.30496600e-08
      1.80727818e-06 2.22074232e-06 3.11857571e-06 4.78493121e-06
      5.77477067e-06 6.56209068e-06 7.56164764e-06 -6.38017300e-05
      -1.24986735e-04 -2.97251263e-05 3.51189419e-06 5.06388551e-06
      -4.43326971e-05 3.77173637e-06 2.88849355e-06 -1.89617185e-06
      -7.61524097e-06 -6.56947168e-06 -4.33506921e-06 -4.95459381e-06
      -6.49001731e-06 -9.17874695e-06 -1.24170829e-05 -1.31668894e-05
      -1.33026197e-05 -1.29938371e-05 -1.19127981e-05 -1.12587195e-05
      -1.82018794e-05 -4.96902430e-05 -8.99490624e-05 -4.39301184e-05
      -3.42210728e-06 -3.33204025e-06 -2.84029124e-06 -3.18511616e-06
      -3.81013388e-06 -4.14243414e-06 -4.32425850e-06 -4.39970654e-06
      -4.55186182e-06 -4.58039085e-06 -4.58039085e-06 -5.08090989e-06
      -6.26948577e-06 -7.05529555e-06 -6.95933886e-06 -6.14628289e-06
      -6.16557145e-06 -6.21608206e-06 -6.29386477e-06 -6.25903567e-06
      -6.05888727e-06 -6.27571490e-06 -6.35077049e-06 -6.35077049e-06
      -6.35299966e-06 -6.22740527e-06 -5.67313191e-06 -5.78831259e-06
      -5.00702663e-06 -3.02208969e-06 -3.04832270e-06 -2.71019576e-06
      -2.56214844e-06 -2.34707409e-06 -7.23625192e-07 -1.22358051e-06
      -2.32356524e-06 -1.97638497e-06 -1.76267349e-06 -7.37541370e-07
      -7.87196939e-08 -2.87207570e-07 -3.90426123e-07 -8.56646309e-08
      -9.35420246e-07 -2.16827388e-07 0. 0. 0. 0. 0. 0. 0. 0. 0. 0. 0.
      -5.05496480e-08 -2.41669773e-06 -1.85812962e-06 -1.11243457e-06
      -1.58018997e-06 -2.75121749e-07 -4.47661751e-06 -3.68115980e-05
      -2.36300712e-05 -3.81941845e-06 -4.64118699e-07 7.68114546e-07
      8.98788130e-07 1.03202933e-06 9.05637421e-07 8.19295110e-07
      -2.47018249e-07 -1.57679983e-06 -2.03136574e-06 -2.74038621e-06
      -3.62666606e-06 -3.27173507e-06 -2.59425997e-06 -2.42497504e-06
      -2.42497504e-06 -2.19980802e-06 -1.39087513e-06 -6.31979276e-07
      -3.81793825e-07 -2.98398675e-07 -2.87570941e-07 3.96896098e-08
      1.03899687e-07 9.65919185e-07 2.06907475e-06 2.79451251e-06
      3.91908952e-06 7.02200987e-06 -5.13714840e-05 -2.02916737e-04
      -7.59923205e-05 8.08148286e-07 5.32864624e-06 2.75845673e-06
      3.56012720e-06 3.95615598e-06 -6.74937201e-06 -1.25029501e-05
      -4.71897147e-06 -7.14873750e-06 -1.00101361e-05 -1.17866348e-05
      -1.09726652e-05 -1.11927411e-05 -1.06524776e-05 -1.30062608e-05
      -1.41487071e-05 -1.43958378e-05 -2.09386089e-05 -1.42416993e-05
      -1.65142374e-05 -1.53616547e-05 -1.25374447e-06 -2.07438416e-06
      -3.16229898e-06 -3.56244345e-06 -3.96791165e-06 -4.45476599e-06
      -4.55100417e-06 -4.12994996e-06 -4.45519072e-06 -4.63032075e-06
      -4.63032075e-06 -4.63032075e-06 -4.63032075e-06 -5.60982062e-06
      -7.05529555e-06 -6.75625915e-06 -4.18227637e-06 -3.10849373e-06
      -3.06155380e-06 -4.21124969e-06 -4.74806666e-06 -4.20765036e-06
      -4.61767149e-06 -5.00306805e-06 -5.21743686e-06 -5.05416847e-06
      -4.35091033e-06 -2.07878247e-06 -2.27912415e-06 -1.58312218e-06
      -6.84853262e-07 -7.26769542e-07 -7.43448595e-07 -6.85071996e-07
      -8.01825195e-07 -5.73869158e-07 -3.51900873e-08 -8.33951486e-09
      -8.33951486e-09 0. 0. 0. 0. 0. 0. 0. 0. 0. 0. 0. 0. 0. 0. 0. 0. 0.
      0. 0. 0. 0. 0. -1.48675439e-09 0. -4.47434729e-07 -6.51718665e-06
      -2.06260920e-05 -2.96841863e-05 -2.81110715e-06 -7.20050309e-07
      -4.63992578e-08 1.11546706e-06 2.27281339e-06 1.93668643e-06
      1.42199190e-06 7.43378052e-07 -2.27492549e-07 -8.21567824e-07
      -9.45558611e-07 -2.71739782e-06 -2.99265594e-06 -3.14576846e-06
      -2.42497504e-06 -2.43173736e-06 -2.04637649e-06 -2.29357261e-06
      -2.28131580e-06 -1.89191383e-06 -6.21691470e-07 -3.04668475e-07
      -2.98398675e-07 -2.98398675e-07 -1.85244744e-07 2.82458160e-07
      1.16649107e-06 1.67243093e-06 5.09521988e-06 9.21462379e-06
      -1.00110461e-04 -1.05503015e-04 -3.48165258e-06 5.78033087e-06
      1.61527703e-06 2.89711829e-06 4.18308082e-06 -5.22688242e-06
      -1.31562156e-05 -6.25131315e-06 -1.09849034e-05 -1.28518632e-05
      -1.20651393e-05 -1.08215527e-05 -9.95673145e-06 -9.85846145e-06
      -1.26827554e-05 -2.21842256e-05 -5.52140555e-05 -5.24763309e-05
      -1.54033512e-06 -1.77197046e-06 9.58545797e-07 -3.58227680e-07
      -1.79599306e-06 -2.65038966e-06 -3.26818144e-06 -3.27268526e-06
      -3.79837820e-06 -3.93814116e-06 -2.79562732e-06 -3.58788134e-06
      -4.63032075e-06 -4.63032075e-06 -4.63032075e-06 -4.63032075e-06
      -4.78247603e-06 -6.81484198e-06 -5.86730903e-06 -3.72432783e-06
      -2.42938518e-06 -1.81491316e-06 -2.69576822e-06 -2.96228200e-06
      -3.88827311e-06 -2.83282498e-06 -1.75254752e-06 -2.04448133e-06
      -1.52603104e-06 -1.36888093e-06 -8.14524640e-07 -6.81211077e-07
      -6.10034590e-07 -3.92504830e-07 0. 0. 0. 0. 0. 0. 0. 0. 0. 0. 0.
      0. 0. 0. 0. 0. 0. 0. 0. 0. 0. 0. 0. 0. 0. 0. 0. 0. 0. 0. 0. 0.
      -2.06508332e-07 5.60041087e-07 2.97626339e-05 3.46574816e-05
      4.38562409e-07 -7.65727634e-07 -5.36775417e-07 4.76443773e-07
      1.98893031e-06 2.78188463e-06 2.72694570e-06 1.89840421e-06
      2.19538470e-06 4.65658422e-06 5.25518908e-06 1.00312968e-06
      -7.91956722e-07 -1.04309515e-06 -3.55503261e-07 2.66508505e-06
      -5.38121776e-06 1.86874729e-06 -2.41587850e-06 1.37465179e-06
      -1.50039091e-06 2.41989983e-06 2.62351637e-06 -2.98398675e-07
      -2.98398675e-07 -3.54727888e-07 -4.09605462e-07 -3.02385985e-07
      1.84237683e-06 3.38926111e-06 -2.35777898e-05 -9.94278525e-05
      -1.25326796e-05 5.89524825e-06 0. 2.16497347e-06 2.27246051e-06
      -1.74676170e-05 -2.72822563e-05 -8.94650293e-06 -1.28037773e-05
      -1.29384607e-05 -1.26949571e-05 -1.12473845e-05 -9.78966636e-06
      -8.88399518e-06 -6.30718614e-06 -4.46191116e-05 -9.38812882e-05
      -4.33317728e-05 2.87453236e-06 2.18505306e-06 1.33444655e-06
      -1.18175080e-06 -1.36486995e-06 -2.10659391e-06 -2.34126196e-06
      -2.05355877e-06 -2.30392538e-06 -2.58713953e-06 -2.50374433e-06
      -3.97983877e-06 -4.63032075e-06 -4.63032075e-06 -4.63032075e-06
      -4.63032075e-06 -4.63032075e-06 -5.88628973e-06 -5.48482831e-06
      -3.37723804e-06 -1.99385613e-06 -1.03455920e-06 -9.27820622e-07
      -1.04459707e-06 -2.22513927e-06 -1.88207514e-06 -6.42159421e-07
      -5.50123673e-07 -5.26696965e-07 -5.11609755e-07 -4.46643440e-07
      -2.70692997e-08 0. 0. 0. 0. 0. 0. 0. 0. 0. 0. 0. 0. 0. 0. 0. 0. 0.
      0. 0. 0. 0. 0. 0. 0. 0. 0. 0. 0. 0. 0. 0. 0. 0. 0. -6.88361084e-08
      4.78808079e-06 4.23726779e-05 3.87221335e-05 -4.03722538e-07
      -7.24481936e-07 -7.12987458e-07 -6.24881466e-07 7.99499162e-07
      2.28261706e-06 2.84062185e-06 2.89679065e-06 6.06124604e-06
      8.29884902e-06 8.90144656e-06 6.58728914e-06 3.42330782e-06
      2.28843169e-06 -1.25503202e-05 -7.22186742e-05 -8.34258244e-05
      -2.29763355e-05 -8.00889848e-06 4.92026775e-05 5.73442776e-05
      2.52760619e-05 7.25273640e-05 -1.01874321e-06 -3.17208105e-07
      -7.05936543e-07 -1.22006122e-06 -1.46159891e-06 -9.76103820e-07
      9.56563667e-07 6.39206883e-06 -5.76162201e-05 -1.80113111e-05
      6.17609658e-06 -8.33951486e-09 6.20364233e-07 1.79211929e-06
      -9.32710373e-06 -2.29170637e-05 -1.31880270e-05 -1.47659130e-05
      -1.47067112e-05 -1.39794038e-05 -9.90098943e-06 -7.95711458e-06
      -3.78434415e-05 -3.74645933e-05 -7.31797263e-05 -5.21460752e-05
      3.87977661e-06 4.52827953e-06 4.78695347e-06 1.98390262e-06
      -2.82225272e-07 -1.72586908e-07 -1.29733894e-06 -7.26434109e-07
      2.29638374e-07 -5.80205949e-07 -7.92216838e-07 -1.27226383e-06
      -2.59676108e-06 -4.54692554e-06 -4.63032075e-06 -4.63032075e-06
      -4.63032075e-06 -4.63032075e-06 -5.24913958e-06 -5.67913685e-06
      -2.19246976e-06 -4.36827122e-07 -3.11296930e-07 -4.27694914e-07
      -4.27694914e-07 -9.74933755e-07 -7.87299598e-07 -9.16576255e-08 0.
      0. 0. 0. 0. 0. 0. 0. 0. 0. 0. 0. 0. 0. 0. 0. 0. 0. 0. 0. 0. 0. 0.
      0. 0. 0. 0. 0. 0. 0. 0. 0. 0. 0. 0. 0. 0. 0. 0. -6.88361084e-08
      -2.72991372e-07 3.19798892e-05 5.37895248e-05 8.69440373e-06
      -7.12987458e-07 -7.12987458e-07 -6.98303154e-07 -3.60563405e-07
      1.04913283e-06 1.97517375e-06 8.00626640e-06 4.77752792e-06
      -1.12898567e-06 1.92646130e-05 2.00464710e-05 5.57936971e-07
      -3.19602586e-05 -6.77012067e-05 -1.48227948e-04 -1.17721822e-04
      -3.52301468e-05 -1.75253990e-05 7.14540802e-05 7.42031843e-05
      3.42708627e-05 1.57671617e-04 9.89736873e-06 -1.92044035e-06
      -1.37117638e-06 -1.73418596e-06 -1.89720106e-06 -1.76905962e-06
      -1.19619713e-07 6.97998075e-06 -6.42272207e-05 -2.10895232e-05
      5.58967849e-06 -3.64877550e-08 -1.60485854e-06 -7.68194604e-06
      -1.27566182e-05 -1.98623020e-05 -1.55983962e-05 -1.52940847e-05
      -1.51803533e-05 -1.37980805e-05 -8.57191753e-06 -2.65405488e-05
      -1.16395880e-04 -7.72276035e-05 -4.20399738e-05 -1.60267227e-05
      6.49879121e-06 6.15279896e-06 5.80003598e-06 3.46093589e-06
      1.91826615e-07 7.70909026e-07 -3.81198191e-07 8.52271512e-07
      7.82730751e-07 -5.96879829e-07 -1.64780738e-06 -3.89395746e-06
      -3.16195042e-06 -4.07991274e-06 -4.63032075e-06 -4.63032075e-06
      -4.63032075e-06 -4.63032075e-06 -4.65953781e-06 -5.13233408e-06
      -1.38600319e-06 -1.32639570e-07 0. 0. 0. -4.27735571e-08
      -1.22210162e-08 0. 0. 0. 0. 0. 0. 0. 0. 0. 0. 0. 0. 0. 0. 0. 0. 0.
      0. 0. 0. 0. 0. 0. 0. 0. 0. 0. 0. 0. 0. 0. 0. 0. 0. 0. 0. 0. 0. 0.
      0. -8.60451394e-07 -5.64456104e-06 4.88298792e-06 3.22073465e-05
      1.98389298e-05 -4.46043060e-08 -7.12987458e-07 -7.12987458e-07
      -7.12987458e-07 -2.28236701e-08 -1.43175203e-06 -2.20927668e-05
      -4.51327060e-06 -4.53448456e-06 -5.82639950e-06 9.65721028e-06
      -2.24273244e-05 -7.38910312e-05 -7.49330356e-05 -5.42481139e-05
      -2.13880703e-05 -1.01456624e-06 -8.87317765e-06 1.56085807e-05
      -1.44242074e-06 4.72584770e-06 9.38590310e-05 2.23972347e-05
      -5.05818343e-06 -2.96109920e-06 -2.41425096e-06 -1.89720106e-06
      -1.89720106e-06 5.72036640e-07 7.17700277e-06 -7.89643527e-05
      -5.14579442e-05 4.90974708e-06 2.21006680e-09 -1.25312158e-06
      -1.10524015e-05 -1.51219347e-05 -1.88944068e-05 -1.53701621e-05
      -1.52919401e-05 -1.69437590e-05 -2.08752481e-05 -8.02999148e-06
      -1.85612407e-05 -6.76752315e-05 -2.95859627e-05 2.10985672e-06
      4.63357810e-06 5.66509880e-06 4.37453809e-06 4.03571039e-06
      2.41259249e-06 -4.25757150e-07 -7.27178190e-07 -1.01813066e-06
      -6.50164623e-07 -6.35064282e-07 -1.15333853e-06 -1.55366786e-06
      -3.64840707e-06 -3.54002282e-06 -3.64625794e-06 -4.63032075e-06
      -4.63032075e-06 -4.63032075e-06 -4.63032075e-06 -4.63711922e-06
      -4.18844547e-06 -1.19637855e-06 0. 0. 0. 0. 0. 0. 0. 0. 0. 0. 0.
      0. 0. 0. 0. 0. 0. 0. 0. 0. 0. 0. 0. 0. 0. 0. 0. 0. 0. 0. 0. 0. 0.
      0. 0. 0. 0. 0. 0. 0. 0. 0. 0. 0. 0. 0. -1.72090282e-07
      -2.81504049e-06 -7.28003033e-06 -6.29888291e-06 6.26690371e-06
      2.09422183e-06 -7.12987458e-07 -7.12987458e-07 -7.12987458e-07
      -7.12987458e-07 -4.50490097e-06 -7.06170395e-05 -9.69130633e-06
      5.24553934e-06 -1.75744590e-05 -4.38332518e-06 -1.43142661e-05
      -3.07312439e-05 -1.68550905e-05 2.14723400e-06 3.04101172e-06
      1.65626273e-06 3.05079141e-07 -2.22839367e-06 -2.71009594e-06
      -2.04327716e-06 9.70699512e-06 1.56395108e-05 -4.60236333e-06
      -4.33042078e-06 -3.78193158e-06 -3.42333237e-06 -2.32251637e-06
      -1.87600347e-06 3.49167158e-06 -8.92667522e-05 -4.14929455e-05
      5.06295692e-06 5.10653493e-08 -3.90862112e-07 -1.32039877e-05
      -2.39870533e-05 -1.72004911e-05 -1.46257016e-05 -1.42768104e-05
      -1.70854819e-05 -2.26328666e-05 -7.45593434e-06 3.33416278e-06
      4.47127741e-06 2.67380597e-06 1.14348472e-06 3.15006423e-06
      4.67206064e-06 3.34891979e-06 3.01843579e-06 2.43749651e-06
      5.43217141e-07 -6.12581289e-07 -3.27538515e-07 -1.78657373e-07
      -2.86988012e-07 -1.14722798e-06 -1.44692308e-06 -2.84318889e-06
      -3.31949400e-06 -3.95481993e-06 -4.63032075e-06 -4.63032075e-06
      -4.63032075e-06 -4.63032075e-06 -4.60093815e-06 -2.70448163e-06
      -3.95406033e-07 -1.66790297e-08 0. 0. 0. 0. 0. 0. 0. 0. 0. 0. 0.
      0. 0. 0. 0. 0. 0. 0. 0. 0. 0. 0. 0. 0. 0. 0. 0. 0. 0. 0. 0. 0. 0.
      0. 0. 0. 0. 0. 0. 0. 0. 0. 0. 0. 0. 0. -9.81165044e-07
      -3.12780799e-06 2.24463893e-05 1.38997530e-05 3.03913066e-06
      -7.12987458e-07 -7.12987458e-07 -7.12987458e-07 -3.98540152e-07
      -2.34437757e-05 -8.53561141e-05 -3.69593408e-06 4.02060459e-06
      3.17421654e-06 3.78544314e-06 5.19507967e-06 4.83899157e-06
      4.89716285e-06 4.64278901e-06 3.65197843e-06 2.79056826e-06
      1.38397377e-06 -4.60558908e-07 -1.27195551e-06 -1.81266626e-06
      -1.38114183e-05 2.68800500e-06 8.30199482e-08 -5.15930424e-06
      -4.02377736e-06 -3.99875898e-06 -2.87292437e-06 -1.74294291e-06
      2.94793767e-06 -7.93937288e-05 -5.08587473e-05 5.13260920e-06
      -7.12155042e-07 -1.63480377e-06 -4.51739879e-06 -2.19883768e-05
      -1.48930549e-05 -9.49091009e-06 -9.07683261e-06 -1.48521776e-05
      -8.13027054e-06 -1.32792297e-06 3.12372026e-06 4.29263810e-06
      1.77924619e-06 1.14348472e-06 3.14055433e-06 4.68823100e-06
      4.63141714e-06 3.86338161e-06 3.05748949e-06 2.36721007e-06
      2.69961788e-07 2.17453433e-07 8.77773871e-08 -1.21865298e-07
      -1.14722798e-06 -1.52024916e-06 -3.21963194e-06 -3.41211489e-06
      -3.58788134e-06 -4.63032075e-06 -4.63032075e-06 -4.63032075e-06
      -4.63032075e-06 -4.30919727e-06 -3.02488365e-06 -1.72628972e-06
      -2.41845925e-07 0. 6.26981356e-09 1.25396271e-08 0. 0. 0. 0. 0.
      4.38886936e-08 1.25396269e-07 1.88094411e-08 0. 0. 0.
      2.50792542e-08 9.40472020e-08 8.15075722e-08 0. 0. 0. 0.
      2.50792542e-08 2.50792539e-07 3.00951058e-07 3.13490673e-08 0. 0.
      0. 1.31666084e-07 3.51109549e-07 4.76505818e-07 2.69601969e-07 0.
      0. 5.01585085e-08 2.44522738e-07 4.32617128e-07 5.07854907e-07
      1.88094411e-08 0. 0. 1.63015144e-07 3.57379378e-07 5.51743597e-07
      6.89679496e-07 3.92907879e-07 4.39528094e-07 4.15129165e-07
      4.00375611e-05 4.07968182e-05 7.58155875e-06 -7.12987458e-07
      -7.12987458e-07 -7.12987458e-07 -3.36452189e-07 3.17828517e-06
      -3.83378501e-05 4.67144582e-06 1.85301496e-06 2.34949380e-06
      2.95122300e-06 3.77288848e-06 4.53450230e-06 5.25553060e-06
      5.22655500e-06 4.41762222e-06 3.53548262e-06 2.67890232e-06
      5.33324794e-07 -9.58394679e-08 -9.32231714e-08 -8.87168244e-06
      -1.11002637e-05 5.65021764e-06 -4.87217267e-06 -4.14488113e-06
      -4.02377736e-06 -3.95706138e-06 -2.90614207e-06 -7.64288188e-07
      -9.13242329e-05 -3.68599176e-05 6.00362046e-06 -8.55743053e-07
      -9.82679126e-07 1.12006501e-05 -1.36174813e-05 -1.90343872e-05
      -3.04830992e-05 -1.80796069e-05 -6.03743365e-06 2.22482200e-07
      1.40192481e-06 3.27236171e-06 4.91099399e-06 2.43695922e-06
      1.82021722e-06 3.81728705e-06 5.32977356e-06 5.19283276e-06
      4.85155579e-06 4.66398888e-06 4.08440746e-06 1.35064761e-06
      9.96900326e-07 7.21028528e-07 7.14758755e-07 5.00440592e-07
      -8.54122959e-07 -2.21600999e-06 -4.26541692e-06 -5.01185514e-06
      -4.10146640e-06 -4.17262436e-06 -4.58643217e-06 -4.57389251e-06
      -4.27980785e-06 -2.73141541e-06 -1.22818858e-06 5.20880178e-07
      8.84043686e-07 8.65234256e-07 5.51743597e-07 3.00951058e-07
      4.57696387e-07 6.26981375e-07 8.15075737e-07 9.78090952e-07
      1.12229657e-06 9.15392775e-07 4.95315248e-07 5.51743597e-07
      7.14758755e-07 8.96583344e-07 1.05959850e-06 1.03451919e-06
      7.14758755e-07 4.82775647e-07 6.45790806e-07 8.02536135e-07
      9.65551294e-07 1.12229657e-06 1.19753440e-06 1.09094753e-06
      6.33251148e-07 7.33568186e-07 8.96583344e-07 1.05959850e-06
      1.15991554e-06 1.24142309e-06 1.24769292e-06 1.02197964e-06
      8.27615395e-07 9.90630497e-07 1.12856640e-06 1.19753440e-06
      1.26650230e-06 1.24769292e-06 7.46107787e-07 8.84043686e-07
      1.07840788e-06 1.16618526e-06 1.24142309e-06 1.31666081e-06
      1.36054950e-06 1.89451418e-06 3.28921874e-06 5.45460261e-06
      3.95494681e-05 4.28161075e-05 9.04993703e-06 5.19297707e-08
      1.96135474e-07 3.59150619e-07 2.06066466e-06 -9.86575287e-06
      -5.30431134e-05 5.24275356e-06 1.82327165e-06 2.10235066e-06
      2.87600255e-06 4.43435829e-06 5.12386487e-06 5.17402304e-06
      4.71005706e-06 4.36539949e-06 3.86874308e-06 3.25217184e-06
      2.20446191e-06 1.50059532e-06 1.33742344e-06 -2.54081692e-06
      -1.05010358e-05 1.81032476e-06 1.09315700e-07 -4.55080499e-06
      -4.02377736e-06 -4.00709860e-06 -3.32509740e-06 7.07076993e-07
      -7.50517429e-05 -4.27773375e-05 5.40011115e-06 -1.67885196e-06
      8.54349400e-06 -1.63393381e-07 -1.47551564e-05 -5.07709137e-06
      8.36218805e-06 -5.20284812e-06 -8.70540043e-06 -3.40439033e-06
      -3.47258242e-06 2.22376657e-05 2.73676073e-06 9.80051027e-07
      1.83375187e-06 3.83082170e-06 5.34330820e-06 5.34330820e-06
      5.26180065e-06 5.17996432e-06 4.60496631e-06 1.93654228e-06
      1.65803272e-06 1.52009682e-06 1.53890630e-06 1.42350336e-06
      4.94662402e-07 -6.11948792e-07 -3.97770509e-06 -4.49786330e-06
      -3.16038245e-06 -3.36745052e-06 -3.78175127e-06 -3.68555925e-06
      -3.34895662e-06 -1.35219216e-06 -1.04688456e-06 4.70455426e-08
      1.23776931e-06 1.44205706e-06 1.23515326e-06 1.07213816e-06
      1.17872492e-06 1.29158161e-06 1.41070802e-06 1.51729489e-06
      1.59880244e-06 1.44205706e-06 1.19753440e-06 1.24142309e-06
      1.34174013e-06 1.71374415e-06 1.89452214e-06 1.57581223e-06
      1.32293064e-06 1.19753440e-06 1.29785144e-06 1.39816837e-06
      1.50475523e-06 1.59880244e-06 1.59253261e-06 1.52251948e-06
      1.54445911e-06 1.53819065e-06 1.51833876e-06 1.56745341e-06
      1.59880244e-06 1.59880244e-06 1.57999295e-06 1.53087831e-06
      1.76181095e-06 1.56327258e-06 1.69075793e-06 1.73673561e-06
      1.62179128e-06 1.56745341e-06 1.36054950e-06 1.45459671e-06
      1.57999295e-06 1.59880244e-06 1.81719668e-06 1.93214100e-06
      1.82869110e-06 3.77751917e-06 1.59919614e-06 -8.62414765e-07
      3.05645844e-05 3.38979407e-05 5.66550534e-06 6.66371477e-07
      7.60418686e-07 8.54465895e-07 4.95583265e-07 -5.49614597e-05
      -5.14802268e-05 5.24452389e-06 1.75260516e-06 1.53610426e-06
      2.24705786e-06 4.41819520e-06 5.29925501e-06 5.05489697e-06
      4.28370959e-06 3.87617183e-06 3.76958496e-06 3.62187848e-06
      3.37493452e-06 3.30661305e-06 2.69855173e-06 -2.79055399e-07
      1.67691985e-06 1.10172814e-05 9.46971431e-06 -3.94733115e-06
      -4.02377736e-06 -4.02377736e-06 -3.85168732e-06 -5.16647287e-06
      -7.86322562e-05 -3.57617537e-05 4.64047162e-06 -4.27904661e-06
      1.39688609e-05 -1.85606095e-05 -1.51032464e-05 -2.91857850e-06
      3.44978762e-05 3.49387738e-05 4.73345717e-05 2.27044675e-05
      1.98970683e-05 8.00604685e-05 3.76466378e-05 -9.88156444e-06
      -1.12665584e-05 -2.89796958e-07 -1.74155343e-06 -2.14258330e-06
      2.63596121e-07 8.12866801e-06 2.81732100e-05 1.20663044e-05
      1.66434097e-06 -3.93847768e-06 -4.21608866e-06 -4.19328353e-06
      -3.54217627e-06 -6.59352418e-06 -1.21241976e-06 -1.23562950e-05
      -7.49418086e-06 -1.13389224e-05 -2.70230930e-06 -1.17302525e-05
      -7.95389769e-06 -7.26708549e-06 -3.06774223e-06 -5.49077504e-06
      1.10949259e-06 -5.20953199e-06 2.76355331e-06 -5.59304863e-06
      -2.49792015e-06 -5.12731822e-06 -4.39335872e-06 -2.72124976e-06
      -9.16437693e-06 -5.28597229e-06 8.12976396e-07 2.82506953e-05
      6.31496960e-06 -4.06479387e-07 -4.20464494e-06 -4.04456750e-06
      -5.85984344e-06 1.31753825e-06 -3.18311345e-06 2.20517486e-05
      1.95328448e-05 4.12328291e-06 -8.42865120e-06 -1.68771487e-06
      -4.52223276e-06 -7.28496752e-06 -4.66066695e-06 1.41708260e-05
      2.95753671e-05 -1.06304360e-05 -3.36341463e-06 8.28132272e-07
      2.74485046e-05 -8.03937473e-06 -8.34346429e-06 6.51786104e-06
      1.93704254e-05 1.65348990e-06 -9.55033897e-07 -8.27637086e-06
      3.54992080e-05 -1.97670556e-06 -6.70257305e-06 -3.67438861e-06
      1.18517355e-05 1.53025903e-05 4.35591483e-06 2.23004827e-05
      1.72402906e-05 6.67008135e-06 1.77773484e-06 8.85814984e-07
      8.73593933e-07 8.73593933e-07 1.41089470e-06 -6.42570521e-05
      -7.46891965e-05 5.27505972e-06 1.60131390e-06 1.34827155e-06
      1.99163242e-06 3.52245047e-06 4.62790103e-06 4.91804258e-06
      3.96569521e-06 3.50486039e-06 3.24669122e-06 2.62738990e-06
      2.94395841e-06 3.16480578e-06 2.87583475e-06 -5.09642497e-08
      1.48397958e-05 6.53642346e-05 3.65869200e-05 -4.31962189e-06
      -4.02377736e-06 -4.02377736e-06 -3.16332603e-06 -6.14794430e-07
      -6.48349451e-05 -2.46392210e-05 4.34463709e-06 -1.55487451e-05
      -3.61650418e-05 -7.10320592e-06 -1.50724572e-05 -1.16525016e-05
      3.30698958e-06 2.31341419e-05 3.91419562e-05 1.57135455e-05
      8.57639770e-06 3.27828966e-05 4.32861489e-05 7.83733994e-05
      -8.50224023e-06 4.63674223e-05 1.03283437e-05 4.46682607e-05
      2.42150218e-05 3.02789085e-05 7.15482602e-05 4.37879135e-05
      2.57511692e-05 -3.84457098e-06 -2.65174804e-05 2.11089773e-05
      1.32517116e-05 1.61900043e-05 2.72653706e-05 -4.21114783e-05
      -6.52412709e-05 -5.54350345e-06 4.55719528e-05 -2.95803948e-05
      -3.85309904e-05 3.92003267e-06 1.63558470e-05 3.97475487e-05
      5.04511845e-05 7.00220153e-06 5.31068399e-05 6.42434952e-06
      5.76955135e-05 1.54806967e-05 1.71377669e-05 1.51176691e-05
      -6.79580189e-05 -2.42905880e-05 1.98479793e-05 8.97747886e-05
      5.75230115e-05 3.14964673e-05 -1.58920939e-05 -1.13818805e-05
      6.55210679e-05 5.48481694e-05 1.15609282e-05 7.94552398e-05
      5.35646213e-05 4.66184247e-05 1.27901212e-05 2.01164748e-05
      -1.17186019e-05 -6.78483048e-05 6.23803999e-06 4.23516030e-05
      7.33745983e-05 -1.01006910e-04 -4.97284191e-06 2.67851669e-06
      3.34229867e-06 -5.52416568e-05 -1.99818023e-05 2.26800112e-05
      6.11916985e-05 -6.77684729e-05 -1.72889813e-05 1.39456561e-05
      7.69262697e-05 -2.95900863e-05 -5.38640343e-05 -1.82704243e-05
      -4.52875429e-05 5.28897326e-05 2.17199195e-05 6.59449324e-06
      4.84466796e-07 -1.13680437e-06 -4.59058612e-07 8.46351398e-08
      2.06340275e-07 4.77673829e-08 2.12086366e-06 1.76675587e-06
      -6.78571232e-05 1.68666929e-06 1.77854690e-06 1.13143540e-06
      1.38596783e-06 1.49313371e-06 3.76585876e-06 4.96479561e-06
      3.79476933e-06 3.12215730e-06 2.41250427e-06 1.86109776e-06
      2.39188398e-06 2.85852343e-06 2.96204212e-06 3.75238278e-06
      3.93499140e-05 1.24623999e-04 6.01917709e-05 -8.07542278e-07
      -4.02377736e-06 -4.02377736e-06 -3.95494135e-06 -1.22051551e-05
      -1.46227991e-04 -2.24654341e-05 5.19392870e-06 -7.69362123e-06
      3.48204521e-05 4.47692692e-05 -1.51658442e-05 -1.48889476e-05
      -1.11815480e-05 -3.94322842e-06 -5.29643067e-08 -8.20877858e-07
      2.45059937e-07 3.08107906e-06 8.02397881e-06 1.98219823e-05
      -1.90288824e-06 1.46748453e-05 6.79426830e-06 1.89124949e-05
      9.23919924e-06 1.00178831e-05 1.81929045e-05 1.25417282e-05
      9.74456907e-06 1.83568193e-06 -1.42415263e-06 1.04245883e-05
      8.07813922e-06 7.28940086e-06 6.68995744e-06 -8.72597866e-06
      -1.40751335e-05 4.10759640e-07 1.27894473e-05 -1.05119043e-05
      -9.70801011e-06 2.60952470e-06 6.51421260e-06 2.58862765e-05
      2.83693607e-05 4.13997941e-06 1.59674091e-05 5.05048001e-06
      2.07978101e-05 6.80632820e-06 6.31899911e-06 5.50136792e-06
      -1.25577035e-05 -4.07079870e-06 5.89595174e-06 2.22690596e-05
      1.54198096e-05 1.22131987e-05 -5.43001897e-06 2.67378118e-06
      3.95528150e-05 2.92971472e-05 5.07125333e-06 2.07041558e-05
      1.38359992e-05 1.61273438e-05 3.34850915e-06 8.86070211e-06
      -2.29208155e-07 -1.44375772e-05 3.63181516e-06 1.00083535e-05
      1.57704708e-05 -2.48798842e-05 4.62055414e-06 1.41854571e-06
      -1.20760535e-06 -1.07909063e-05 -1.26915529e-06 7.39155985e-06
      1.49553935e-05 -1.79451581e-05 -2.51750998e-06 3.33652997e-06
      1.98111629e-05 -1.13748320e-05 -8.99701263e-06 -2.19415892e-06
      -9.43320083e-06 1.25571923e-05 2.70621604e-06 -2.42618103e-06
      -1.51913412e-06 1.48585144e-07 -6.24318488e-07 4.27991608e-07
      8.02241004e-07 3.10737789e-07 1.15514206e-06 -1.16761084e-05
      -5.93843433e-05 -5.14219528e-06 2.39827978e-06 4.95560585e-07
      4.07645928e-07 1.18949799e-06 3.19687206e-06 3.53367454e-06
      2.65320477e-06 1.69720067e-06 1.54579573e-06 1.45734953e-06
      1.73127876e-06 2.72474108e-06 2.83956388e-06 3.39023495e-06
      2.43861123e-05 8.89420262e-05 4.16466828e-05 -2.06937807e-06
      -3.40564657e-06 -4.02377736e-06 -3.43867055e-06 -1.16944625e-06
      -1.50554100e-04 -3.23014719e-05 5.48096568e-06 -6.39182235e-06
      3.12318007e-05 5.94615631e-06 -1.50904079e-05 -1.52821904e-05
      -1.44920559e-05 -1.28205384e-05 -1.06881171e-05 -8.07426022e-06
      -4.53563644e-06 -3.29582804e-06 -1.44123919e-06 -3.37892743e-06
      -1.03224659e-06 4.95614859e-06 6.57109968e-06 7.02604393e-06
      5.81985933e-06 6.06629828e-06 6.87992133e-06 4.59065404e-06
      4.86365661e-06 6.56751536e-06 7.19612171e-06 5.90783748e-06
      5.42278985e-06 4.57862416e-06 -1.20611844e-07 1.06909022e-06
      7.35800484e-07 2.22843460e-06 1.77142670e-06 1.11284794e-06
      -6.36075086e-08 5.10510006e-07 2.37455765e-06 6.40208054e-06
      4.84263046e-06 2.17697675e-06 4.67380642e-06 1.75102275e-06
      3.88856279e-06 2.12901273e-06 -2.31572514e-07 1.29914497e-06
      2.11913698e-06 4.61371854e-07 1.64607428e-07 1.79765982e-06
      2.63310153e-06 2.55399164e-06 7.46070498e-07 3.26776080e-06
      5.58274769e-06 4.97656765e-06 9.11504685e-07 5.10811276e-07
      8.94293464e-07 -2.99936318e-07 -1.74222532e-06 -1.28926388e-06
      -6.52764584e-07 -1.29941679e-06 -2.81732866e-07 -1.95691109e-06
      -4.53054190e-06 -2.40581835e-06 -1.37601816e-07 -1.34413517e-06
      -2.91640663e-06 -2.73591149e-06 -2.55057853e-06 -2.61807054e-06
      -2.96587336e-06 -5.28721012e-06 -3.92769152e-06 -4.94327242e-06
      -2.84820658e-06 -5.95184292e-06 -2.89643640e-06 -3.56363103e-06
      -2.38111147e-06 -3.23717791e-06 -4.80776043e-06 -2.34380536e-06
      -9.90365379e-07 -5.31152352e-07 -1.11882446e-06 -7.26940925e-07
      4.38690222e-07 3.03285816e-07 2.14863326e-06 -1.92785774e-05
      -2.81216518e-04 -2.46973195e-05 4.49054960e-06 1.24176972e-06
      9.09563482e-07 1.04635217e-06 1.94760059e-06 2.00166232e-06
      1.60409252e-06 1.22408233e-06 1.24076143e-06 1.23869165e-06
      1.43512557e-06 2.69121870e-06 2.83956388e-06 2.73948967e-06
      6.95109611e-06 5.35123254e-05 7.21982287e-05 3.07893302e-08
      -1.60831212e-06 -2.29301099e-06 -3.14343265e-06 1.26256873e-06
      -5.38872664e-05 -1.26740031e-06 5.90825130e-06 -5.19196055e-06
      -9.34688887e-06 -1.36564940e-05 -1.52723642e-05 -1.51566446e-05
      -1.47628816e-05 -1.34112106e-05 -1.09219363e-05 -8.06373464e-06
      -5.14719250e-06 -2.90211892e-06 -2.05042943e-06 -1.41434248e-06
      1.20142767e-08 3.40210363e-06 4.63554306e-06 4.40124268e-06
      4.87953275e-06 5.16734417e-06 5.63562980e-06 4.60875981e-06
      4.76636569e-06 5.84550799e-06 5.84000600e-06 4.64685036e-06
      4.62600838e-06 2.87920921e-06 1.36057935e-07 -4.95249708e-08
      -7.30394788e-07 3.29904481e-07 2.66619566e-07 6.59350292e-07
      -1.09279235e-07 5.06025977e-08 6.91382127e-07 1.53209919e-06
      7.18791114e-07 6.12580322e-07 7.11189159e-07 3.54109844e-08
      4.35820482e-07 -3.29838997e-07 -6.07433833e-07 -5.38270683e-07
      -2.35635341e-07 -8.79422430e-07 -3.10811458e-07 5.85699183e-07
      1.58771843e-06 7.43650276e-07 4.44118001e-07 6.98055146e-07
      4.98744782e-07 8.86709302e-07 2.90735869e-07 -2.55110166e-07
      -1.36934182e-06 -1.44206649e-06 -1.50772735e-06 -1.35700782e-06
      -6.79520383e-07 -5.66468202e-07 -5.93229743e-07 -6.64093079e-07
      -7.61234844e-07 -7.36625452e-07 -5.74165767e-07 -9.09128801e-07
      -1.41637167e-06 -2.28055592e-06 -2.17353227e-06 -2.15457226e-06
      -2.12484065e-06 -2.38363486e-06 -2.20011657e-06 -1.13838564e-06
      -8.79335346e-07 -1.01120327e-06 -1.05558684e-06 -8.10850452e-07
      -8.60649095e-07 -1.05558684e-06 -1.13082467e-06 -1.36891595e-06
      -1.95237590e-06 -1.99385636e-06 -1.91444701e-06 -1.66992425e-06
      -1.95055506e-07 -3.28487744e-07 -2.11734530e-07 -5.92053075e-05
      -2.14489963e-04 -8.65323091e-06 4.32848447e-06 1.01658020e-06
      -6.96643383e-08 -6.47336265e-08 8.02474233e-07 4.96717689e-07
      9.00297223e-08 1.39945399e-07 5.73600175e-07 3.90130850e-07
      6.80004860e-07 1.52137409e-06 2.31831382e-06 2.19742105e-06
      2.01876483e-05 8.55017861e-05 5.25225660e-05 -1.81916334e-06
      -1.59880244e-06 -1.70340923e-06 -2.73996716e-06 -5.89289584e-07
      -1.12813570e-04 -3.86381907e-05 4.46631475e-06 -5.55549286e-06
      7.67329311e-06 -1.13900060e-05 -1.51030154e-05 -1.46219090e-05
      -1.24977232e-05 -9.83677091e-06 -7.78708272e-06 -4.60949332e-06
      -2.31262493e-06 -5.55394251e-07 9.21894014e-07 -8.97323559e-07
      -3.51472522e-07 1.84654868e-06 3.28347483e-06 3.21482958e-06
      3.90121295e-06 4.49684512e-06 4.63775450e-06 4.63775450e-06
      4.64221466e-06 4.63626793e-06 4.61584068e-06 4.62668731e-06
      4.16394778e-06 2.51087795e-06 -8.04658157e-07 -1.33739582e-06
      -1.38562882e-06 -6.52725021e-07 2.68684289e-07 1.73502684e-07
      -7.23997484e-09 1.93797076e-10 1.25810526e-08 7.57940342e-08
      1.24518778e-07 -1.29999149e-08 -8.56169109e-08 -6.96196082e-07
      -1.05480547e-06 -9.71190389e-07 -1.32204320e-06 -1.12153839e-06
      -1.21881567e-06 -1.20468167e-06 -7.51363132e-07 -1.00272665e-07
      1.14865479e-07 1.24518778e-07 1.24518778e-07 1.24518778e-07
      1.07625503e-07 1.24518778e-07 1.16621326e-08 -5.57318060e-07
      -1.57218994e-06 -1.51209929e-06 -1.21550943e-06 -8.21923379e-07
      -1.78040580e-07 -1.49626146e-07 -6.27464516e-08 -7.23997484e-09
      6.09863722e-20 6.09863722e-20 -4.34398473e-08 -1.57763807e-07
      -6.95949325e-07 -1.53610426e-06 -1.56075885e-06 -1.48318020e-06
      -1.21156552e-06 -9.84360668e-07 -6.83409667e-07 -6.26981347e-08
      6.09863722e-20 6.09863722e-20 6.09863722e-20 6.09863722e-20
      6.09863722e-20 6.09863722e-20 -2.50792542e-08 -5.32934166e-07
      -1.44020407e-06 -1.43919272e-06 -1.12580085e-06 -7.50485583e-07
      -2.12227658e-08 6.09863722e-20 5.16270802e-07 -5.32626545e-05
      -1.66823011e-04 8.19005709e-06 4.11424799e-06 1.21016012e-06
      8.60061249e-08 -5.09626148e-07 -1.44575068e-07 -1.92117497e-07
      -2.46354688e-07 -7.33269758e-07 -7.77401283e-07 -8.27438384e-07
      -7.44043234e-07 2.88709856e-07 8.46298292e-07 1.04656806e-06
      7.62329182e-06 3.03738834e-05 2.74502072e-05 -2.36826440e-06
      -1.59880244e-06 -1.71291890e-06 -2.78751577e-06 2.93096662e-07
      -6.95588824e-05 -7.05216444e-05 3.94142990e-06 -2.87674379e-06
      9.85914448e-06 -1.37455008e-05 -1.46802395e-05 -1.40194361e-05
      -9.97663938e-06 -6.68244866e-06 -5.82643679e-06 -3.45747708e-06
      -2.01041166e-06 -1.25405577e-07 1.92803782e-06 1.18850735e-07
      -3.32787181e-07 1.81371286e-06 3.45159583e-06 3.58953162e-06
      4.12873578e-06 4.49105892e-06 4.51394453e-06 4.50724110e-06
      4.60136062e-06 4.63032075e-06 4.46380136e-06 4.39593441e-06
      4.08286451e-06 2.24007181e-06 -1.57914178e-06 -2.04602611e-06
      -1.15695082e-06 -1.21558003e-07 1.55271141e-06 6.57502767e-07
      -3.57589641e-07 -2.77055733e-07 -7.72263959e-08 -4.82664975e-09
      -3.81365783e-09 -2.18360967e-07 -8.93071103e-07 -1.38362111e-06
      -1.15747730e-06 -1.02946342e-06 -1.03626257e-06 -9.45035083e-07
      -6.95793346e-07 -5.31490969e-07 -5.54325993e-07 -5.04320042e-07
      -1.47361845e-07 -7.23997484e-09 -1.14409726e-08 -1.27757531e-07
      -3.86668688e-07 -2.73629439e-07 -1.12904956e-07 -3.31354101e-07
      -9.45443617e-07 -1.06264440e-06 -6.59827379e-07 -3.48223239e-07
      -3.45349491e-07 -6.23532003e-07 -5.44666989e-07 -2.57868294e-07
      -4.34398473e-08 6.09863722e-20 -2.31679195e-07 -4.56111167e-07
      -4.46415413e-07 -7.56258260e-07 -8.71697353e-07 -1.18957132e-06
      -7.52567360e-07 -3.19760488e-07 -2.38221276e-07 -2.74324492e-07
      -3.20347255e-07 -9.15277809e-08 6.09863722e-20 6.09863722e-20
      6.09863722e-20 -2.34539954e-07 -1.43012159e-07 -2.22353961e-07
      -8.18740034e-07 -1.27311398e-06 -1.11354029e-06 -6.54654116e-07
      -9.98066625e-08 6.09863722e-20 6.88361084e-08 1.01412743e-05
      -2.74783251e-05 4.77718231e-06 4.53273015e-06 1.04290848e-06
      4.81004349e-07 2.49021269e-07 2.99179788e-07 3.99496798e-07
      2.61560899e-07 -5.09626148e-07 -8.85814984e-07 -8.85814984e-07
      -8.85814984e-07 6.71966873e-08 6.25210077e-07 7.12987458e-07
      -1.00897641e-05 -4.97576802e-05 -2.07011890e-05 -2.43966451e-06
      -1.72242858e-06 -2.57830220e-06 -3.68142810e-06 -4.19162279e-06
      -1.40015705e-04 -3.37917954e-05 5.29206682e-06 3.90472542e-06
      -8.24098788e-06 -1.39633312e-05 -1.43286607e-05 -1.37212728e-05
      -9.65484105e-06 -6.88312321e-06 -6.33471609e-06 -3.15832040e-06
      1.15429634e-06 3.46967909e-06 3.10943096e-06 8.66002381e-07
      3.57495082e-07 2.32279285e-06 3.83101133e-06 4.17624233e-06
      4.48475748e-06 4.30577984e-06 3.89452362e-06 3.92613583e-06
      4.39524456e-06 4.60871979e-06 4.25142889e-06 4.08702908e-06
      4.13008866e-06 2.32337720e-06 -1.95832399e-06 -2.10256667e-06
      -1.16268222e-06 -2.54866109e-07 2.62330855e-06 1.50661128e-06
      -6.60524108e-07 -9.59104000e-07 -4.52424587e-07 -3.91495689e-08
      -3.05092627e-08 -3.56349773e-07 -1.18876335e-06 -1.30453782e-06
      -6.17270246e-07 -3.89249749e-07 -5.54422627e-07 -5.41506608e-07
      -1.66519413e-07 -2.17199236e-08 -2.99252292e-07 -8.86376313e-07
      -6.14236853e-07 -9.68609299e-08 -6.67390125e-08 -3.30894380e-07
      -9.42359748e-07 -9.40780524e-07 -3.46102212e-07 -1.16232656e-07
      -3.83355712e-07 -8.99634870e-07 -6.40276937e-07 -4.77898752e-08
      -2.82776227e-07 -8.38497158e-07 -1.07267931e-06 -9.18047590e-07
      -2.73004105e-07 -3.67362425e-08 -4.42860227e-07 -9.10271240e-07
      -5.33576554e-07 -1.21068638e-07 -2.28133715e-07 -8.52292089e-07
      -6.44120462e-07 -4.17595516e-07 -2.80303851e-07 -3.69924805e-07
      -3.68017965e-07 -1.04875589e-07 6.09863722e-20 6.09863722e-20
      -1.08689242e-07 -4.42384277e-07 -4.86241333e-07 -4.24060801e-07
      -4.07048049e-07 -8.63464834e-07 -1.06543939e-06 -9.77665763e-07
      -4.26771862e-07 -4.57638905e-08 1.03254160e-06 -3.10739633e-05
      -9.02090906e-05 9.95551545e-06 4.70074747e-06 9.67261030e-07
      7.12987458e-07 7.12987458e-07 7.12987458e-07 7.12987458e-07
      5.06083609e-07 -2.96452498e-07 -8.85814984e-07 -8.85814984e-07
      -8.85814984e-07 -1.27167539e-07 5.87591217e-07 7.12987458e-07
      1.34459572e-06 1.53402107e-05 3.19847313e-05 -3.80401275e-06
      -3.77652509e-06 -4.02377736e-06 -4.02377736e-06 1.41427529e-06
      -3.50124501e-05 1.23837231e-06 5.11042117e-06 -8.26063172e-07
      -1.09097073e-05 -1.49864236e-05 -1.44217711e-05 -1.34696656e-05
      -9.79641391e-06 -6.55262102e-06 -3.48552544e-06 -3.88102336e-07
      2.73463843e-06 4.61388481e-06 4.17361889e-06 1.73750652e-06
      9.96428525e-07 1.98031421e-06 2.92622417e-06 3.70903877e-06
      4.59599778e-06 4.33455398e-06 3.89935030e-06 3.76036064e-06
      4.06625713e-06 4.56727639e-06 4.42036162e-06 4.27285522e-06
      4.27531268e-06 2.37793643e-06 -1.38149710e-06 -1.54611894e-06
      -6.59881266e-07 1.17038439e-07 3.15639909e-06 2.36699361e-06
      -2.80799696e-07 -7.65412381e-07 -5.34090645e-07 6.09863722e-20
      -3.05092627e-08 -2.97465306e-07 -8.44039107e-07 -9.35119772e-07
      -3.90989186e-07 -1.10953536e-07 -2.09959268e-07 -2.92012317e-07
      -9.17063474e-08 -1.68932743e-08 -1.49268672e-07 -5.60309275e-07
      -4.63180498e-07 -1.14409726e-08 -2.28819452e-08 -1.55466125e-07
      -6.12389442e-07 -8.17999023e-07 -3.62386771e-07 -7.98186264e-08
      -1.92619240e-07 -5.39989685e-07 -4.20842923e-07 6.09863722e-20
      -6.30146317e-08 -3.22641085e-07 -6.47963645e-07 -7.97560290e-07
      -3.31639200e-07 -4.43635599e-08 -2.57808892e-07 -5.88643502e-07
      -3.08876395e-07 -2.86024324e-08 -3.86131980e-08 -2.92042529e-07
      -4.22898779e-07 -4.72893561e-07 -3.01278959e-07 -4.57638905e-08
      -8.00868136e-08 -1.33478020e-08 6.09863722e-20 6.09863722e-20
      -3.24160894e-08 -2.17378485e-07 -4.02340874e-07 -4.86241333e-07
      -4.91068022e-07 -7.49293747e-07 -1.06302605e-06 -9.80561140e-07
      -4.91465528e-07 -4.10265244e-08 -2.41332487e-09 2.24623036e-05
      -1.11174904e-05 5.05409439e-08 4.52230415e-06 1.17129173e-06
      7.12987458e-07 7.12987458e-07 7.12987458e-07 7.12987458e-07
      5.56242128e-07 -1.20897724e-07 -8.85814984e-07 -8.85814984e-07
      -8.85814984e-07 -3.65840378e-07 5.49972299e-07 7.03477781e-07
      9.88493230e-06 3.24628018e-05 1.63806417e-05 -4.01526358e-06
      -4.02377736e-06 -4.02377736e-06 -3.95494135e-06 -1.95319371e-05
      -2.64625036e-04 -4.73304281e-05 4.31379340e-06 1.34355105e-05
      -1.32912974e-05 -1.45725326e-05 -1.46500252e-05 -1.40599859e-05
      -1.21916619e-05 -8.00651105e-06 -2.54702582e-06 1.03445791e-06
      3.58967714e-06 4.83791973e-06 4.33663399e-06 1.73750652e-06
      9.44552312e-07 1.43505179e-06 1.87731041e-06 3.03812158e-06
      4.63032075e-06 4.62066737e-06 4.48635546e-06 4.28235444e-06
      4.34623325e-06 4.60171850e-06 4.63032075e-06 4.56969383e-06
      4.32599245e-06 2.92536856e-06 -7.05003799e-07 -1.24162102e-06
      -1.01240488e-07 9.19674576e-08 1.09181576e-06 5.25802307e-07
      -6.93635460e-09 -1.21113331e-07 -1.59905440e-07 6.09863722e-20
      6.09863722e-20 -3.81365783e-09 -1.60352187e-07 -4.06035042e-07
      -2.05937511e-07 -7.62731567e-09 -1.68932743e-08 -4.58531737e-08
      -9.65329949e-09 6.09863722e-20 6.09863722e-20 -6.73347866e-09
      -3.86430727e-08 6.09863722e-20 6.09863722e-20 6.09863722e-20
      -2.41332487e-09 -1.64314869e-07 -8.19936403e-08 -5.72048631e-09
      6.09863722e-20 -2.41332487e-09 -4.24567297e-08 6.09863722e-20
      6.09863722e-20 6.09863722e-20 -2.78277508e-08 -1.44114438e-07
      -9.82612605e-08 6.09863722e-20 6.09863722e-20 6.09863722e-20
      -1.14409726e-08 -1.90682892e-09 6.09863722e-20 6.09863722e-20
      -1.14409726e-08 -1.01061929e-07 -9.72482681e-08 6.09863722e-20
      6.09863722e-20 6.25413918e-07 3.44180542e-08 6.09863722e-20
      -1.23626180e-07 -4.27936783e-07 -3.42349409e-07 -5.50071547e-07
      -4.18050092e-07 -7.79661832e-07 -1.00751959e-06 -1.38734458e-06
      -1.85837575e-06 -6.72622605e-07 -7.09125345e-08 7.75194439e-06
      -1.37644374e-05 -7.85153952e-06 4.53515395e-06 7.21167396e-07
      7.12987458e-07 6.36909817e-07 7.03477781e-07 7.12987458e-07
      6.06400647e-07 1.01384501e-08 -1.27571286e-06 -1.08551876e-06
      -8.85814984e-07 -1.60909224e-06 1.31965209e-07 -1.14356943e-07
      1.01462847e-05 5.53927821e-05 4.52379390e-05 -4.28156181e-06
      -4.02377736e-06 -4.02377736e-06 -3.85168732e-06 -2.08327265e-06
      -6.20136489e-05 -1.72051477e-05 4.51402639e-06 -4.29318925e-06
      9.02849877e-07 -1.44077358e-05 -1.49786838e-05 -1.45295071e-05
      -1.40950342e-05 -1.05454583e-05 -4.23274150e-06 1.57768881e-07
      2.87010585e-06 4.48939318e-06 4.24999507e-06 1.67252722e-06
      8.85814984e-07 8.85814984e-07 1.10608005e-06 2.48640754e-06
      4.57158330e-06 4.57158330e-06 4.84692782e-06 4.84692782e-06
      4.70734858e-06 4.64041932e-06 4.57158330e-06 4.58356089e-06
      4.30386399e-06 2.30614205e-06 -1.67741814e-06 -9.92328182e-07
      6.09863722e-20 3.09762498e-07 6.94471623e-07 6.11050810e-09
      6.09863722e-20 1.72090282e-07 2.75344433e-07 6.88361084e-08
      6.09863722e-20 6.09863722e-20 4.47434729e-07 6.09863722e-20
      6.09863722e-20 6.09863722e-20 6.09863722e-20 6.09863722e-20
      3.44180542e-08 3.44180542e-08 1.72090282e-07 6.53943061e-07
      2.40926397e-07 6.88361126e-07 1.37672217e-07 6.09863722e-20
      6.09863722e-20 4.81852794e-07 2.06508321e-06 2.75344433e-07
      1.37672217e-07 1.37672217e-07 1.72090282e-07 1.72090282e-07
      1.03254160e-06 4.47434729e-07 1.30788612e-06 2.99437079e-06
      2.75344433e-07 6.09863722e-20 2.47730895e-07 2.71902627e-06
      4.13016642e-06 2.41968905e-06 1.47273488e-06 1.31469062e-06
      8.69524058e-07 6.60789055e-07 3.48075991e-06 2.31054605e-06
      2.77250524e-06 4.27062696e-06 5.02744854e-07 3.30738629e-07
      3.03584812e-07 -2.12656278e-06 -2.07311587e-06 -2.11115480e-06
      -1.43409875e-06 -1.56016790e-06 -2.34873187e-06 -2.59862804e-06
      -3.22817414e-06 -2.53830535e-06 -1.46464140e-06 1.64123003e-06
      -8.39574859e-05 -1.86346260e-05 3.64642347e-06 -3.24080702e-07
      -6.65919913e-07 -1.14140516e-06 -3.46029339e-07 4.56225422e-07
      -2.62852410e-07 -4.32857604e-07 -2.63560082e-06 -2.66145889e-06
      -2.12616374e-06 -3.03020852e-06 -8.18585477e-07 -1.50277401e-06
      8.17868749e-06 5.23565905e-05 5.29527861e-05 -4.75265097e-07
      -4.02377736e-06 -4.02377736e-06 -4.02377736e-06 -2.41666257e-05
      -2.34998734e-04 -3.06660222e-05 4.91384935e-06 -1.11320878e-05
      2.71876506e-05 -1.10112824e-05 -1.53582114e-05 -1.48568261e-05
      -1.43928401e-05 -1.20497725e-05 -6.55489566e-06 -4.26118004e-06
      8.64900812e-07 3.86718102e-06 3.08032486e-06 3.78955929e-06
      3.66128938e-06 2.40020950e-06 1.40162194e-06 4.59925423e-06
      5.94150606e-06 5.45965349e-06 8.21309732e-06 7.93775325e-06
      8.10984329e-06 7.18055617e-06 7.69682720e-06 6.92131061e-06
      5.93485811e-06 3.72657746e-06 2.42013471e-06 2.90616117e-06
      1.73856961e-06 2.03066520e-06 5.88548755e-06 3.57947783e-06
      2.89111654e-06 5.16270848e-06 5.23154449e-06 3.67121243e-06
      2.27581472e-06 4.36049322e-06 6.46713352e-06 4.48940455e-06
      1.67307201e-06 3.43540819e-06 2.27420992e-06 3.74676620e-06
      4.87886155e-06 3.82161988e-06 5.31435853e-06 6.65451216e-06
      6.31114108e-06 6.60860496e-06 5.16220689e-06 2.08678148e-06
      3.99426108e-06 6.72882561e-06 7.51243397e-06 5.86537908e-06
      5.01828617e-06 5.09925985e-06 4.55339205e-06 4.97514702e-06
      6.87966758e-06 6.03845956e-06 6.64894606e-06 7.94484367e-06
      3.41826717e-06 2.55294754e-06 5.07695313e-06 7.61842784e-06
      8.26146879e-06 6.53463121e-06 5.25600353e-06 5.16109458e-06
      4.82957967e-06 5.30591888e-06 6.28628186e-06 5.96714790e-06
      5.96033624e-06 6.65916878e-06 4.93767539e-06 6.13451493e-06
      4.73189993e-06 -1.88502815e-06 -2.30074352e-06 -1.27588885e-06
      -5.44693648e-07 -1.41803469e-06 -2.19963272e-06 -2.99749763e-06
      -2.50524113e-06 -1.54400288e-06 -1.54035286e-06 7.04911963e-06
      8.16349075e-06 -7.93537220e-06 4.01148918e-06 4.19068130e-07
      -5.92515278e-07 -2.82863425e-07 -2.43603409e-07 -1.23352959e-06
      -9.74158752e-07 -1.49447726e-06 -2.53058579e-06 -1.33678293e-06
      -2.11217889e-06 -2.78058883e-06 -2.05173205e-06 -1.74333661e-06
      1.54566151e-05 8.43778107e-05 6.60697042e-05 -3.44999603e-06
      -4.02377736e-06 -4.02377736e-06 -4.02377736e-06 -3.09461416e-06
      -8.45479735e-05 -1.57409140e-05 4.63316337e-06 -4.93732978e-06
      1.42519330e-05 -2.29749785e-05 -2.59533772e-05 -1.51854856e-05
      -1.50444021e-05 -1.37138795e-05 -9.75436615e-06 -6.84484621e-06
      -1.60122158e-06 2.01251669e-06 6.26374458e-07 3.42263024e-06
      7.77185960e-06 8.25822553e-06 7.87018689e-06 9.21938044e-06
      9.68469340e-06 9.58143937e-06 9.92743753e-06 9.62191552e-06
      9.83952577e-06 9.80944696e-06 9.70306519e-06 9.96628478e-06
      1.08844806e-05 9.76061983e-06 6.85738451e-06 7.07170284e-06
      7.33586558e-06 7.08158814e-06 8.63893183e-06 8.32916976e-06
      8.19149682e-06 8.47542105e-06 8.45917202e-06 9.63646198e-06
      1.00406678e-05 1.03227912e-05 1.08075865e-05 1.07632932e-05
      1.06179396e-05 1.06469224e-05 9.58294822e-06 1.05067638e-05
      9.64052924e-06 8.19908291e-06 9.40215978e-06 9.97686857e-06
      9.97020106e-06 9.73772421e-06 9.65125309e-06 9.72094949e-06
      8.62279012e-06 8.66590199e-06 9.84905273e-06 1.05478803e-05
      1.09378043e-05 9.75923831e-06 1.01913820e-05 8.74800844e-06
      8.88464911e-06 8.30646422e-06 8.42755162e-06 9.24380402e-06
      8.33037302e-06 7.95841788e-06 7.54684470e-06 7.70178667e-06
      7.37668279e-06 8.28625343e-06 8.23696246e-06 8.20275363e-06
      9.10248036e-06 9.46202545e-06 8.15843941e-06 8.77135790e-06
      8.15068415e-06 8.55885264e-06 9.14283373e-06 8.89464718e-06
      7.00180863e-06 9.61948558e-07 -1.33007075e-06 9.96100653e-07
      1.34295658e-06 1.21313280e-06 8.50541653e-07 -9.51985726e-07
      5.82901336e-08 8.73026977e-07 4.64886938e-07 6.10666802e-06
      2.46950895e-05 -1.10862657e-05 6.25970824e-06 2.12431951e-06
      1.49834227e-06 1.54169857e-06 1.55945997e-06 1.25179406e-06
      1.27636224e-06 1.93725256e-07 -1.48972745e-07 -6.61073386e-07
      -7.77903040e-07 -8.52168853e-07 -1.64012238e-06 -1.42720364e-06
      -8.65779555e-07 3.61047823e-05 7.42102202e-05 2.56610792e-06
      -4.02377736e-06 -4.02377736e-06 -4.02377736e-06 -9.25474069e-06
      -7.96401291e-05 -1.35910886e-05 4.46391005e-06 -1.36786150e-06
      -1.02215272e-05 -7.82743009e-05 -6.97774158e-05 -1.27589847e-05
      -1.55280886e-05 -1.45764534e-05 -1.05184954e-05 -7.08177322e-06
      -2.26699035e-06 4.86711497e-06 5.39467919e-06 3.52959637e-06
      5.06990091e-06 7.62350828e-06 7.25537939e-06 7.53112317e-06
      7.65878758e-06 9.69765551e-06 8.52992343e-06 7.81607832e-06
      7.81088784e-06 8.83687426e-06 8.51828645e-06 9.43110354e-06
      8.52793073e-06 1.12999860e-05 6.62300909e-06 5.92897777e-06
      6.26481096e-06 7.78645608e-06 8.18161334e-06 8.27710301e-06
      7.72955991e-06 7.93638719e-06 9.57186603e-06 1.11752524e-05
      1.13166489e-05 1.17442250e-05 1.18700773e-05 1.07780188e-05
      1.24621874e-05 1.24181015e-05 1.07570277e-05 1.05612598e-05
      9.20801085e-06 8.64267713e-06 9.72880571e-06 8.10268466e-06
      7.96160384e-06 7.91842012e-06 9.89045202e-06 1.04635928e-05
      8.69244559e-06 6.64241134e-06 8.61156786e-06 9.24768756e-06
      8.95946414e-06 7.47740796e-06 9.96787367e-06 8.52036192e-06
      7.78716003e-06 6.50726679e-06 6.09507242e-06 7.50526488e-06
      8.33062313e-06 8.55324197e-06 6.43957810e-06 6.20170158e-06
      6.13058364e-06 6.88647151e-06 7.48731009e-06 9.98223732e-06
      8.20868718e-06 8.92024582e-06 8.47692263e-06 1.05954141e-05
      1.03125176e-05 9.54425650e-06 8.69902669e-06 9.89762339e-06
      9.56242457e-06 5.58298689e-06 2.35909297e-07 1.79334609e-06
      2.68908502e-06 3.44623595e-06 3.11414783e-06 2.01008652e-06
      3.34261699e-06 3.97829717e-06 2.96176290e-06 4.39299720e-06
      -1.00463840e-04 -4.09485910e-05 8.36512390e-06 3.77435344e-06
      2.70887085e-06 3.03333309e-06 3.64094149e-06 2.92096615e-06
      2.97171209e-06 1.66341977e-06 2.03221452e-06 5.42896828e-07
      6.34020125e-07 8.07216168e-07 -1.15538955e-06 -1.11690167e-06
      7.73625786e-08 1.84319470e-05 4.00971730e-05 5.17654826e-07
      -4.02377736e-06 -4.02377736e-06 -4.02377736e-06 -1.13266083e-06
      -9.45155334e-05 -5.46830997e-05 3.19217656e-06 -1.72221303e-06
      -4.91802939e-06 -3.41869927e-05 -7.16437498e-05 -7.73879128e-06
      -1.56616952e-05 -1.46897601e-05 -7.78912454e-06 -2.45950332e-06
      2.18116770e-06 4.90951788e-06 1.76457650e-06 5.67618235e-06
      1.17257778e-05 1.88136783e-05 1.50149644e-05 2.14787269e-05
      -2.22652034e-05 6.20143737e-06 1.58213916e-05 1.98052276e-05
      2.83094664e-06 -4.18176256e-07 1.02037648e-05 7.99270583e-06
      -1.34864686e-05 -4.61643276e-06 5.32243484e-06 6.53068298e-07
      -1.70650619e-05 1.26959458e-05 1.36522367e-05 4.85211899e-07
      -2.31841404e-05 -1.40123366e-05 8.94081495e-06 6.37491803e-06
      -5.40072506e-06 1.44717512e-06 6.63319679e-06 1.14319937e-05
      9.99897679e-07 2.11883034e-05 2.21995469e-05 3.46143884e-06
      -2.96339664e-07 1.16041165e-05 2.40070622e-05 9.58741839e-06
      -9.16505257e-07 -1.14039076e-05 -4.34681215e-06 2.11461611e-05
      5.07668074e-06 -1.64353278e-05 -5.07313780e-06 -9.86189661e-07
      2.03547620e-06 -2.96308713e-06 3.96965606e-06 -1.07240317e-06
      -2.35372818e-06 1.72554064e-06 1.48218260e-05 1.89355887e-05
      5.85088264e-06 -2.23329835e-06 1.14086461e-05 2.22624512e-05
      2.01152579e-05 2.21502105e-05 -1.66554855e-05 5.95949587e-06
      2.07296603e-06 -1.43997624e-06 9.65975005e-07 3.24682856e-06
      9.62041577e-06 1.44721639e-06 -5.54184362e-06 -3.84658642e-06
      1.51236327e-05 -2.72537773e-06 -2.01996522e-06 9.65965796e-07
      1.49865173e-06 3.50678829e-06 3.86346710e-06 3.57842009e-06
      4.33182367e-06 4.55380905e-06 4.75155275e-06 -7.01464705e-06
      -2.34947205e-04 -2.31928861e-05 8.21441972e-06 5.40250858e-06
      4.72504644e-06 5.12635961e-06 5.33576440e-06 4.76681134e-06
      4.86321551e-06 4.79298706e-06 3.86910733e-06 2.86246564e-06
      2.82506653e-06 6.78464403e-07 -3.71310591e-07 -3.04582841e-07
      -1.17528236e-06 2.64881637e-05 5.94335834e-05 -1.59985177e-06
      -4.02377736e-06 -4.02377736e-06 -4.02377736e-06 -1.47684136e-06
      -8.12306462e-05 -5.03074953e-05 2.89782838e-06 -7.81243330e-07
      -2.90900698e-06 -5.22130313e-06 -2.39663950e-05 -2.54654587e-05
      -2.34175168e-05 -3.08806484e-05 -1.59599131e-05 -6.20554920e-06
      -5.63227741e-06 -2.92357854e-05 -2.72988163e-05 8.08545428e-06
      2.12018113e-05 4.90381935e-05 3.10984651e-05 6.35232718e-05
      -5.51977428e-05 -1.34404245e-05 3.24379507e-05 5.36174302e-05
      2.97004840e-06 -2.38396369e-05 1.86282546e-06 2.40652298e-06
      -3.30914336e-05 -3.59113619e-05 3.66105596e-05 3.26804402e-05
      -4.24154241e-05 2.99296953e-05 2.42950027e-05 -1.02360436e-05
      -6.74254770e-05 -4.26637380e-05 -1.18136734e-06 4.90101047e-06
      -2.49887835e-05 -1.77274233e-05 -1.54629906e-05 4.86322915e-06
      -2.35482512e-05 3.33111275e-05 4.77996728e-05 -1.60254615e-07
      -1.60775435e-05 1.81787018e-05 5.49069300e-05 1.13771703e-05
      -8.03305556e-06 -2.81442117e-05 -3.00783413e-05 7.41448894e-05
      2.73403220e-05 -4.13637426e-05 -2.54027236e-05 -1.81553205e-05
      -4.94487767e-06 -2.77504369e-05 -2.75067168e-06 5.26858821e-06
      2.01693292e-05 -3.88120225e-06 4.00699137e-05 5.76682105e-05
      4.58722825e-05 -1.61773005e-05 1.17688769e-05 6.84548431e-05
      8.96611091e-05 7.52738561e-05 -4.07446496e-05 -1.29970622e-05
      -1.00241605e-05 -1.03243656e-05 -8.77164348e-06 -1.12486905e-05
      -1.01774958e-05 -1.06827229e-05 -2.18323257e-05 -2.92359127e-05
      9.70098154e-06 -1.34167030e-05 -8.32268961e-06 3.09526968e-06
      -2.38095424e-07 3.29964496e-06 4.27468422e-06 4.14130500e-06
      4.11186465e-06 4.03468857e-06 5.69008762e-06 -1.82476160e-05
      -9.85335573e-05 1.45891637e-08 6.40653298e-06 4.89211561e-06
      4.82918358e-06 5.07997584e-06 5.34330820e-06 5.34330820e-06
      5.34330820e-06 5.23672134e-06 4.62227945e-06 3.55571729e-06
      2.67580413e-06 1.35282448e-06 9.02355850e-07 1.56665735e-07
      -5.60903436e-06 -3.61531283e-06 2.61395562e-05 -4.81204916e-06
      -4.02377736e-06 -4.02377736e-06 -4.02377736e-06 -1.11727172e-06
      -9.55232026e-05 -2.25118019e-05 5.55375846e-06 -8.05913373e-07
      -2.56512726e-06 1.50903546e-07 -9.09607934e-06 -4.23352503e-05
      -2.68870499e-05 -5.00433162e-05 -3.18632447e-05 2.95123646e-05
      9.47268018e-06 -6.34474563e-05 -4.26596598e-05 1.69359646e-06
      -3.23678989e-07 2.55906762e-05 1.08775876e-05 4.40702206e-05
      2.76849482e-06 -1.10137516e-05 1.54323207e-05 3.68328219e-05
      1.45974273e-05 -1.00923253e-05 -7.19894479e-06 5.51581616e-06
      4.71077237e-06 -1.59991323e-05 5.43758106e-05 6.25948960e-05
      1.63595041e-06 1.96909859e-05 1.04006558e-05 -9.79122547e-07
      -1.98040161e-05 -6.69197198e-06 -6.59914076e-06 1.22489773e-05
      8.16423108e-06 -2.95109430e-06 -1.05539084e-05 -3.39040548e-06
      -1.36793578e-05 9.02270131e-06 2.46477339e-05 1.44244059e-05
      -3.90139894e-06 1.07070291e-05 2.97549595e-05 2.49821892e-06
      8.93414654e-06 3.71008423e-06 -8.30036151e-06 8.68868738e-05
      5.31237274e-05 3.98416341e-06 -7.41301528e-06 -1.21329567e-05
      -1.53341830e-06 -2.00563827e-05 7.97083487e-07 3.43316533e-05
      6.52347589e-05 -2.56647536e-06 2.48566212e-05 4.70226987e-05
      8.04544543e-05 -2.12109876e-06 -8.72970213e-06 4.84084776e-05
      1.02172722e-04 6.18051199e-05 1.77261154e-06 -1.26250570e-05
      -9.02370357e-06 6.25588746e-06 2.22231415e-06 -6.07509278e-08
      -2.17000379e-05 4.11823839e-06 3.86807687e-06 -5.97685494e-06
      -6.69333622e-06 -3.71707597e-06 -3.26974327e-06 2.58112195e-05
      -1.17610156e-07 2.03181412e-06 3.53310338e-06 3.33873913e-06
      3.10675614e-06 3.03151819e-06 4.67797418e-06 -5.18790330e-05
      -6.25131943e-05 9.41017151e-06 5.66810058e-06 3.95036159e-06
      3.98902830e-06 4.67870814e-06 5.28687997e-06 5.34330820e-06
      5.34330820e-06 4.71633530e-06 3.84976283e-06 2.00714726e-06
      4.31946461e-07 1.48526738e-07 -8.38175197e-07 -1.71376996e-06
      1.32611103e-06 3.41569939e-05 5.54365033e-05 -2.94425536e-06
      -4.43493900e-06 -4.08251481e-06 -4.02377736e-06 -4.36386154e-06
      -1.41228316e-04 -2.62933827e-05 6.62524280e-06 -2.88002667e-07
      -1.75280206e-06 -2.98838154e-06 -8.67727977e-06 -1.92508069e-05
      1.26341797e-06 -7.28762825e-06 -2.35868883e-05 6.32380616e-05
      3.99368873e-05 -7.19194531e-06 -1.11322741e-07 2.15387581e-06
      1.59055105e-06 1.53041174e-06 1.81906751e-06 3.21407947e-06
      5.34813489e-06 5.35054824e-06 5.34572155e-06 5.34572155e-06
      5.34330820e-06 5.34283527e-06 5.31678597e-06 5.28060991e-06
      5.14858630e-06 3.35346476e-06 -4.37573078e-07 -1.35031996e-06
      -3.65420448e-07 3.55608108e-07 -4.28118568e-07 -3.45634916e-08
      1.18325353e-07 1.06253890e-06 3.14873296e-06 3.62341598e-06
      3.38587915e-06 3.54811141e-06 3.74450565e-06 3.74450565e-06
      3.74450565e-06 3.77441165e-06 4.02087380e-06 4.02136993e-06
      3.74691899e-06 3.74450565e-06 3.75415902e-06 3.74933234e-06
      3.74450565e-06 3.74450565e-06 3.74450565e-06 6.72246961e-06
      3.74450565e-06 3.74450565e-06 3.56829378e-06 3.19277069e-06
      2.88225510e-06 2.86344562e-06 2.86344562e-06 4.84875500e-06
      4.12570216e-06 3.15812690e-06 2.97003248e-06 2.87598527e-06
      2.86344562e-06 2.86344562e-06 2.86344562e-06 2.86344562e-06
      4.85502460e-06 2.87598527e-06 2.86344562e-06 2.86344562e-06
      2.86344562e-06 2.86344562e-06 3.09839493e-06 3.50955634e-06
      3.74450565e-06 3.74450565e-06 3.74450565e-06 3.74450565e-06
      3.74450565e-06 3.74450565e-06 1.17417758e-05 4.34981011e-05
      1.55908344e-06 6.76227955e-07 3.03151819e-06 3.03151819e-06
      3.03151819e-06 3.03151819e-06 5.62653122e-06 -4.26297520e-05
      -1.91767649e-05 9.02251122e-06 6.61934928e-06 4.91693800e-06
      3.83855286e-06 4.29624924e-06 4.97965902e-06 5.34330820e-06
      5.32497688e-06 3.28066903e-06 6.90183469e-07 -2.47585353e-06
      -3.08420272e-06 -2.44608873e-06 -4.49203799e-06 -4.53373559e-06
      -3.74783508e-06 1.49262166e-06 1.02677404e-05 -4.89109709e-07
      -5.24257757e-06 -4.18530499e-06 -3.82810367e-06 -3.11200688e-06
      -1.64050085e-04 -3.19818209e-05 6.73331579e-06 -1.06724464e-07
      -7.62926447e-07 -2.60201068e-06 -5.54270082e-06 -1.07162541e-05
      1.48211184e-05 3.28495080e-05 8.70611620e-06 -3.50828668e-05
      -2.77704476e-05 -3.49026459e-06 6.10672846e-09 9.56368467e-07
      1.15680814e-06 1.10677104e-06 1.22696190e-06 2.99725207e-06
      5.25991300e-06 5.18485740e-06 5.32662898e-06 5.34330820e-06
      5.34330820e-06 5.01100794e-06 4.42164583e-06 4.02664728e-06
      3.89669322e-06 1.91231811e-06 -8.54115058e-07 -2.04604839e-06
      -8.23116807e-07 -6.41292218e-07 -8.23116807e-07 -7.91767775e-07
      -7.66847791e-07 3.12562094e-07 3.16969727e-06 4.08387859e-06
      3.75704531e-06 3.74450565e-06 3.74450565e-06 3.74450565e-06
      3.74450565e-06 3.75077548e-06 3.76331514e-06 3.74450565e-06
      3.74450565e-06 3.74450565e-06 3.74450565e-06 3.74450565e-06
      3.74450565e-06 3.74450565e-06 3.74450565e-06 3.74450565e-06
      3.74450565e-06 3.74450565e-06 3.70045268e-06 3.61234675e-06
      3.53892506e-06 3.53892506e-06 3.53892506e-06 3.53892506e-06
      3.57027420e-06 3.57027420e-06 3.55146472e-06 3.53892506e-06
      3.53892506e-06 3.53892506e-06 3.53892506e-06 3.53892506e-06
      3.53892506e-06 3.53892506e-06 3.53892506e-06 3.53892506e-06
      3.53892506e-06 3.53892506e-06 3.59766250e-06 3.68576843e-06
      3.74450565e-06 3.74450565e-06 3.74450565e-06 3.74450565e-06
      3.74450565e-06 3.74450565e-06 4.71353087e-06 2.99135863e-05
      2.19576723e-05 5.61081879e-06 3.03151819e-06 3.03151819e-06
      3.03151819e-06 3.03151819e-06 6.33741638e-06 -3.19666397e-05
      -1.60662039e-05 8.68927236e-06 6.87733291e-06 6.39972041e-06
      4.50418383e-06 3.80720394e-06 4.38402685e-06 5.26695658e-06
      4.59056264e-06 1.46168895e-06 -1.90014987e-06 -5.06141123e-06
      -6.03892477e-06 -5.35372419e-06 -5.26972190e-06 -5.25091264e-06
      1.44778039e-06 1.98190355e-05 5.03448564e-06 -4.37752442e-06
      -5.52404299e-06 -3.53633050e-06 -1.86344585e-06 -7.46175465e-06
      -1.67279926e-04 -2.58188938e-05 7.54186021e-06 -5.46176722e-08
      -2.26008012e-07 -1.56364501e-06 -2.63813581e-06 -1.63397408e-06
      1.56267906e-05 2.03378440e-05 1.08968825e-05 -7.40332762e-05
      -7.12689580e-05 -1.67112721e-05 -7.00241571e-06 -3.10808105e-07
      2.63103715e-07 1.23090877e-06 1.26299369e-06 2.53565031e-06
      4.17577621e-06 3.94226981e-06 4.37592462e-06 4.87629541e-06
      5.13646501e-06 4.57839087e-06 3.98275870e-06 3.77585479e-06
      3.73097100e-06 1.96304268e-06 -1.49347022e-06 -1.80528673e-06
      -8.85814984e-07 -8.54465895e-07 -8.85814984e-07 -8.85814984e-07
      -8.85814984e-07 -3.00441286e-07 2.94283473e-06 3.97577514e-06
      3.74450565e-06 3.74450565e-06 3.74450565e-06 3.74450565e-06
      3.74450565e-06 3.74450565e-06 3.74450565e-06 3.74450565e-06
      3.74450565e-06 3.74450565e-06 3.74450565e-06 3.74450565e-06
      3.74450565e-06 3.74450565e-06 3.74450565e-06 3.74450565e-06
      3.74450565e-06 3.74450565e-06 3.74450565e-06 3.74450565e-06
      3.74450565e-06 3.74450565e-06 3.74450565e-06 3.74450565e-06
      3.74450565e-06 3.74450565e-06 3.74450565e-06 3.74450565e-06
      3.74450565e-06 3.74450565e-06 3.74450565e-06 3.74450565e-06
      3.74450565e-06 3.74450565e-06 3.74450565e-06 3.74450565e-06
      3.74450565e-06 3.74450565e-06 3.74450565e-06 3.74450565e-06
      3.74450565e-06 3.74450565e-06 3.74450565e-06 3.74450565e-06
      3.74450565e-06 3.74450565e-06 3.74450565e-06 2.12086870e-05
      1.99236511e-05 9.25123004e-06 3.03151819e-06 3.03151819e-06
      3.03151819e-06 3.03151819e-06 6.19528419e-06 -4.33289242e-05
      -2.13681506e-05 9.01748263e-06 6.93966240e-06 6.69730662e-06
      6.26178689e-06 4.20428296e-06 3.86090960e-06 3.93323216e-06
      1.75320042e-06 -7.32198544e-07 -3.02222497e-06 -5.03454885e-06
      -5.50717050e-06 -4.71651492e-06 -4.00548424e-06 -4.98159761e-06
      5.88129205e-06 5.34951214e-05 2.58748041e-05 -5.49205652e-06
      -4.67803375e-06 -1.93703136e-06 6.90531920e-07 -8.75324804e-06
      -1.90113002e-04 -5.56622253e-05 4.72220472e-06 -5.23886641e-08
      -6.33984769e-07 -2.14428496e-06 -2.20727975e-06 -6.64241668e-07
      6.92551203e-06 -4.28884869e-06 -1.17561203e-05 -3.34780561e-05
      -3.52710849e-05 1.40003831e-05 -9.27444125e-05 -2.81642533e-05
      -7.04372496e-06 -1.64120559e-06 2.66064194e-06 2.84087719e-06
      3.23540553e-06 3.05719891e-06 2.58494470e-06 2.80177210e-06
      2.95535483e-06 3.04118953e-06 2.89238392e-06 3.07789628e-06
      3.40009751e-06 1.33280355e-06 -1.60930733e-06 -2.47590197e-06
      -9.52382891e-07 -8.85814984e-07 -8.85814984e-07 -8.85814984e-07
      -8.79704430e-07 8.93587142e-08 2.74791159e-06 3.53640257e-06
      3.53718815e-06 3.74450565e-06 3.74450565e-06 3.74450565e-06
      3.74450565e-06 3.74450565e-06 3.74450565e-06 3.74450565e-06
      3.74450565e-06 3.74450565e-06 3.74450565e-06 3.74450565e-06
      3.74450565e-06 3.74450565e-06 3.74450565e-06 3.74450565e-06
      3.74450565e-06 3.74450565e-06 3.74450565e-06 3.74450565e-06
      3.74450565e-06 3.74450565e-06 3.74450565e-06 3.74450565e-06
      3.74450565e-06 3.74450565e-06 3.74450565e-06 3.74450565e-06
      3.74450565e-06 3.74450565e-06 3.74450565e-06 3.74450565e-06
      3.74450565e-06 3.74450565e-06 3.74450565e-06 3.74450565e-06
      3.74450565e-06 3.74450565e-06 3.74450565e-06 3.74450565e-06
      3.74450565e-06 3.74450565e-06 3.74450565e-06 3.74450565e-06
      3.74450565e-06 3.74450565e-06 2.84963630e-06 1.55791349e-05
      1.51169352e-05 5.31329079e-06 2.89358513e-06 3.03151819e-06
      3.03151819e-06 3.03151819e-06 3.68384394e-06 -4.46827471e-05
      -2.25808744e-05 1.91886033e-06 8.79118943e-06 5.54721964e-06
      4.73311820e-06 3.39141934e-06 1.11242502e-06 -3.68442215e-07
      -1.67596693e-06 -4.82927635e-06 -5.79973766e-06 -5.88770490e-06
      -8.75963815e-06 -8.38704727e-06 -4.66336860e-06 4.25759572e-06
      -3.96925207e-05 3.15470570e-05 6.45332466e-06 -4.24751897e-06
      -1.74978868e-06 1.18117146e-06 2.35964330e-06 3.00033975e-07
      -7.47171362e-05 -3.32845811e-05 4.83207168e-06 -4.33108767e-08
      -5.20835044e-07 -1.40835959e-06 -1.93221331e-06 -2.82089763e-06
      6.79404820e-07 1.86321995e-05 1.40569227e-05 -5.65799292e-06
      -7.31404543e-06 1.19771976e-05 -7.45797588e-05 3.07565574e-06
      1.04473993e-05 -4.65437097e-06 -4.88461296e-07 6.49410879e-07
      2.15550199e-06 2.30227442e-06 1.04750484e-07 -1.59275345e-07
      -2.02767666e-07 -5.30750981e-07 -7.33755883e-07 5.85908992e-07
      1.64502785e-06 3.12642157e-07 -1.94159134e-06 -1.43934403e-06
      -8.85814984e-07 -8.85814984e-07 -8.85814984e-07 -8.85814984e-07
      -8.85814984e-07 3.03286441e-07 2.11965880e-06 2.60421007e-06
      3.16425030e-06 3.48598087e-06 3.61941306e-06 3.68612905e-06
      3.73616626e-06 3.71948727e-06 3.72782665e-06 3.74450565e-06
      3.74450565e-06 3.74450565e-06 3.74450565e-06 3.74450565e-06
      3.74450565e-06 3.74450565e-06 3.74450565e-06 3.74450565e-06
      3.74450565e-06 3.74450565e-06 3.74450565e-06 3.74450565e-06
      3.74450565e-06 3.74450565e-06 3.74450565e-06 3.74450565e-06
      3.74450565e-06 3.74450565e-06 3.74450565e-06 3.74450565e-06
      3.74450565e-06 3.74450565e-06 3.74450565e-06 3.74450565e-06
      3.74450565e-06 3.74450565e-06 3.74450565e-06 3.74450565e-06
      3.74450565e-06 3.74450565e-06 3.74450565e-06 3.74450565e-06
      3.74450565e-06 3.74450565e-06 3.74450565e-06 3.74450565e-06
      3.74450565e-06 3.60683362e-06 8.88529576e-06 3.68874462e-05
      3.16884252e-05 2.10368376e-06 2.97404608e-06 3.03151819e-06
      3.03151819e-06 3.03151819e-06 2.41307112e-06 -4.21593104e-05
      -3.39348626e-05 -2.52820610e-05 2.94187630e-05 1.70470557e-05
      -1.70778112e-05 -2.51790734e-05 -1.58668518e-05 -1.53313488e-06
      -4.87593525e-06 -6.90098886e-06 -1.17928366e-05 -2.35540374e-05
      -1.15769126e-05 2.58757864e-05 3.98630800e-06 5.80782362e-05
      -1.11050122e-05 6.23460073e-06 -6.44175270e-06 -9.12837208e-07
      2.78172024e-06 3.46467050e-06 4.01632042e-06 -9.98636187e-06
      -8.69764408e-05 -1.32195155e-05 5.55391125e-06 -4.33108767e-08
      -6.76679292e-07 -1.66888935e-06 -2.14956435e-06 -1.32732407e-06
      -8.44894373e-07 2.51893198e-05 3.20279541e-05 4.59535931e-06
      -1.04315659e-05 -1.05414128e-05 -8.83362918e-06 8.91701802e-06
      3.19078099e-05 3.05716494e-05 -4.60731144e-06 -4.14085162e-06
      -2.02411957e-06 -1.96038627e-06 -2.11699239e-06 -2.29247871e-06
      -1.75489947e-06 -1.94895256e-06 -2.56512430e-06 -1.42725469e-06
      -1.13017950e-06 -2.69949942e-06 -4.41786506e-06 -3.74645151e-06
      -2.98567511e-06 -2.98567511e-06 -2.98567511e-06 -2.98567511e-06
      -2.98567511e-06 -2.20068341e-06 -2.05540587e-07 1.20880358e-07
      -2.37744374e-07 -1.81708145e-07 -3.40158920e-07 2.68625683e-07
      8.27373185e-07 6.77261937e-07 8.85749785e-07 1.33608364e-06
      1.41113924e-06 1.32774414e-06 1.46117634e-06 1.29438604e-06
      1.56959004e-06 1.64464564e-06 2.36417804e-06 3.43613465e-06
      3.74450565e-06 3.74450565e-06 3.74450565e-06 3.74450565e-06
      3.74450565e-06 3.74450565e-06 3.74450565e-06 3.74450565e-06
      3.74450565e-06 3.74450565e-06 3.74450565e-06 3.74450565e-06
      3.74450565e-06 3.74450565e-06 3.74450565e-06 3.74450565e-06
      3.74450565e-06 3.74450565e-06 3.74450565e-06 3.74450565e-06
      3.74450565e-06 3.74450565e-06 3.74450565e-06 3.26116628e-06
      3.29156933e-06 3.58304555e-06 1.95476696e-06 2.26452948e-06
      3.02172657e-06 3.60360013e-06 1.68414663e-05 3.87510518e-05
      1.96709989e-05 -2.39884002e-07 3.03151819e-06 3.03151819e-06
      3.03151819e-06 3.03151819e-06 3.03151819e-06 -5.28886358e-06
      -1.33278572e-05 -1.45775848e-05 1.59646479e-05 2.01436978e-05
      -1.40651146e-05 -4.63739198e-05 -2.02873071e-05 2.26893681e-05
      5.69403564e-05 4.55241170e-05 4.72997490e-05 1.47676019e-05
      6.09789004e-06 2.49235545e-05 1.25024571e-05 4.53764260e-05
      9.58944020e-06 -1.85703391e-06 -6.89939725e-07 3.59851606e-06
      4.22098901e-06 4.43595673e-06 5.90578748e-06 -2.93412741e-05
      -9.44474232e-05 -3.34055426e-06 6.16947000e-06 0. -8.13777845e-09
      -8.88013574e-07 -2.49264758e-06 -3.05642243e-06 -1.65103404e-06
      7.17895773e-06 1.54676582e-05 3.13213677e-05 1.50761553e-05
      2.37742233e-06 -7.77635432e-06 -1.05676600e-05 5.60225681e-06
      9.88037664e-06 -3.67268476e-05 -5.66635754e-05 -1.66221234e-05
      -8.42779264e-06 -5.07933009e-06 -2.59289391e-06 -1.97162217e-06
      -1.70140117e-06 -3.06189145e-06 -3.18614048e-06 -3.27427097e-06
      -4.50940070e-06 -6.02706723e-06 -4.62458092e-06 -4.26321230e-06
      -4.26321230e-06 -4.26321230e-06 -4.26321230e-06 -4.26321230e-06
      -3.97647636e-06 -2.61950186e-06 -2.12409282e-06 -2.54277370e-06
      -1.99331930e-06 -1.89525269e-06 -1.75946798e-06 -1.71777037e-06
      -1.82933240e-06 -1.65025835e-06 -1.29245507e-06 -1.16736237e-06
      -1.30079457e-06 -1.13400426e-06 -1.34249217e-06 -8.58800320e-07
      -2.08318141e-07 8.69813505e-07 1.68125041e-06 2.49633717e-06
      2.47131857e-06 2.40460258e-06 2.49633717e-06 2.49633717e-06
      2.49633717e-06 2.49633717e-06 2.49633717e-06 2.49633717e-06
      2.49633717e-06 2.49633717e-06 2.49633717e-06 2.49633717e-06
      2.49633717e-06 2.49633717e-06 2.49633717e-06 2.49633717e-06
      2.49633717e-06 2.49633717e-06 1.56704971e-06 9.81942776e-07
      1.36054132e-06 1.15403304e-06 -4.26844053e-07 -4.52027234e-05
      -1.15549221e-04 -5.47391901e-05 -2.57059091e-05 -1.35576292e-05
      3.20701565e-06 3.18095736e-05 2.02663796e-05 9.01872113e-07
      -1.25738850e-07 3.03151819e-06 3.03151819e-06 3.03151819e-06
      3.03151819e-06 3.03151819e-06 3.03151819e-06 2.39738824e-06
      9.36414096e-07 -1.20721745e-06 3.09360303e-06 -3.28653982e-06
      -1.77741331e-05 -7.66150515e-06 1.01676897e-05 4.51732703e-05
      2.87903113e-05 3.72621980e-05 2.30933001e-05 1.44733815e-06
      -1.43680666e-06 1.79624340e-06 4.66369920e-06 -1.97550025e-06
      1.82784134e-07 3.63720733e-06 4.54381825e-06 5.24150619e-06
      6.87293459e-06 9.38983339e-06 -7.19995587e-05 -1.02673213e-04
      -1.16395204e-05 4.61613763e-06 1.25396271e-08 5.53636369e-07
      3.70801018e-07 -1.36136464e-06 -2.86929435e-06 -2.20765583e-06
      5.79354769e-08 4.32193519e-06 1.47481169e-05 2.83927839e-05
      7.55140427e-05 9.48584784e-06 -9.56100484e-06 -1.08226486e-05
      -1.09245093e-05 -2.73004844e-05 -1.96576475e-05 -8.68853022e-06
      -3.06016918e-05 -9.95761729e-06 -7.49784886e-06 -3.83506904e-06
      -2.24348310e-06 -2.32227194e-06 -2.51517736e-06 -2.37309109e-06
      -3.63575009e-06 -5.17360149e-06 -4.58016211e-06 -4.60524143e-06
      -4.63032075e-06 -4.63032075e-06 -4.63032075e-06 -4.63032075e-06
      -4.62421031e-06 -4.62394064e-06 -4.83806525e-06 -4.38150801e-06
      -3.62192145e-06 -3.28245960e-06 -3.10784958e-06 -3.32439890e-06
      -3.42407475e-06 -2.78286916e-06 -2.64708433e-06 -2.23139068e-06
      -2.26990460e-06 -2.26910879e-06 -2.12657642e-06 -2.09321820e-06
      -2.00148361e-06 -1.66283144e-06 -1.60101717e-06 -1.29209434e-06
      -9.16816191e-07 -1.26707585e-06 -3.99766236e-07 2.67394967e-07
      -6.61856419e-08 3.75808668e-07 -2.32975935e-07 2.84073991e-07
      4.25845741e-07 4.25845741e-07 4.25845741e-07 4.25845741e-07
      -1.39831116e-06 3.57009640e-07 -4.34605624e-07 -1.59261191e-07
      -4.00187560e-07 -3.53223049e-06 -6.25125676e-06 -6.69869178e-06
      -6.64174968e-06 -9.72415182e-06 -1.00919191e-04 -1.62667522e-04
      -9.03866967e-05 -1.29471024e-04 -1.90120481e-04 -1.36751085e-04
      4.06988283e-06 4.74562185e-05 3.78391178e-07 -4.81226880e-06
      4.90229411e-07 2.69377847e-06 2.69377847e-06 2.61038349e-06
      2.18926834e-06 1.53149824e-06 1.37740358e-07 -1.66149823e-06
      -2.52883365e-06 -3.53338373e-06 -3.65808205e-06 -3.69584109e-06
      -3.56608098e-06 -2.88592332e-06 -3.03049228e-06 3.54930535e-06
      -1.74577156e-06 9.64074161e-07 4.87818284e-07 -4.97560086e-06
      -3.88412354e-06 -1.43350758e-06 1.20026380e-06 3.41624309e-06
      4.42267719e-06 5.26659733e-06 7.51747848e-06 9.35993558e-06
      1.05656836e-05 1.13683545e-05 -4.05045757e-05 -2.91221095e-05
      1.26487487e-06 4.61024820e-06 0. 1.04252251e-06 7.60608657e-07
      -1.10182363e-07 -1.74692775e-06 -3.15556008e-06 -1.11790985e-06
      2.51455481e-06 2.83956388e-06 9.75282637e-06 -1.32453388e-05
      -2.10303424e-05 -8.19333036e-06 -1.00503794e-05 -1.04339970e-05
      -1.11294003e-05 -1.97757799e-06 -3.02482513e-05 -6.03261615e-05
      -3.09050374e-05 -1.70857675e-05 -8.94951791e-06 -5.23236758e-06
      -3.51146514e-06 -2.51604843e-06 -2.52261543e-06 -3.18199386e-06
      -3.70238831e-06 -3.84659415e-06 -4.20397328e-06 -4.61778109e-06
      -4.63032075e-06 -4.63032075e-06 -4.63032075e-06 -4.63032075e-06
      -4.63032075e-06 -4.94369306e-06 -5.70082466e-06 -5.59510454e-06
      -5.98550014e-06 -5.20227240e-06 -4.60630281e-06 -4.64123013e-06
      -4.38180223e-06 -4.02035539e-06 -3.68297401e-06 -3.78224627e-06
      -3.35369441e-06 -3.03075285e-06 -3.23442987e-06 -2.75020670e-06
      -2.49271898e-06 -2.83233430e-06 -2.79894039e-06 -2.05212450e-06
      -2.12001669e-06 -2.04458092e-06 -1.82164297e-06 -1.96341466e-06
      -2.35459288e-06 -2.55474106e-06 -2.15536397e-06 -1.17540071e-06
      -3.70567307e-07 -2.94768142e-06 -6.31867124e-06 -8.57160467e-06
      -6.98307394e-06 -8.30459976e-06 -6.88935961e-06 -7.81864674e-06
      -8.56750466e-06 -8.67340805e-06 -1.12960324e-05 -2.42305978e-05
      -6.97334472e-05 -1.58695897e-04 -1.00997080e-04 -6.80642233e-06
      -2.27498036e-04 -2.49606383e-04 -2.30074176e-04 -6.85068517e-05
      3.09808297e-06 -6.13500833e-06 -7.16150953e-06 -1.88904505e-06
      -5.30676800e-08 5.24017096e-08 -8.41996098e-07 -1.57863258e-06
      -1.97883833e-06 -3.36675521e-06 -5.68895075e-06 -6.29742772e-06
      -6.68935536e-06 -5.89957608e-06 -4.19701473e-06 -3.09584516e-06
      -2.47513344e-06 -2.47687649e-06 -2.70178293e-06 -2.78217499e-06
      -2.60274123e-06 -1.78151038e-06 -9.22326080e-07 2.04095073e-07
      3.05356366e-06 8.93341439e-06 1.19269480e-05 1.07066971e-05
      1.15803095e-05 1.19131746e-05 1.14986788e-05 1.16341962e-05
      8.19612160e-06 -1.98009919e-04 -7.04744016e-05 3.12340740e-06
      3.78914706e-06 2.38252909e-07 1.14853151e-06 1.02706247e-06
      4.86910267e-07 -5.56149132e-07 -1.08381244e-06 -5.83405892e-07
      1.05173910e-06 1.85055444e-06 2.58083560e-06 -3.06541187e-05
      -5.09921556e-05 -6.47218476e-05 -1.79423409e-06 -8.60670934e-06
      -8.86276212e-06 -8.06073058e-06 -1.72558066e-05 -4.06092768e-05
      -3.83192819e-05 -1.56430924e-05 -1.21570120e-05 -1.13246642e-05
      -9.50221693e-06 -4.29765669e-06 -3.14329372e-06 -3.30379385e-06
      -3.17572403e-06 -3.25096175e-06 -3.85913381e-06 -4.60524143e-06
      -4.63032075e-06 -4.63032075e-06 -4.63032075e-06 -4.63032075e-06
      -4.63032075e-06 -5.12087126e-06 -6.20889023e-06 -6.40292546e-06
      -6.36502864e-06 -6.35280776e-06 -6.24281847e-06 -6.34058642e-06
      -6.29170245e-06 -5.85053840e-06 -5.03982392e-06 -5.07215964e-06
      -5.12428505e-06 -5.05544904e-06 -5.12896213e-06 -5.04728405e-06
      -4.96541179e-06 -5.73059287e-06 -6.13694419e-06 -4.90671709e-06
      -5.26645499e-06 -6.11194037e-06 -4.89901959e-06 -8.13706356e-06
      -9.94486709e-06 -1.00993384e-05 -9.86563737e-06 -9.11122333e-06
      -9.15594410e-06 -1.06565285e-05 -1.08006689e-05 -1.02999493e-05
      -1.07736787e-05 -1.03145612e-05 -9.80067216e-06 -9.67687811e-06
      -1.19722563e-05 -2.45697902e-05 -6.51288574e-05 -1.40246731e-04
      -2.10674727e-04 -2.11911218e-04 -5.47688796e-05 -1.06019306e-05
      -5.47099044e-05 -4.97942419e-05 -8.07278193e-05 -6.95410199e-05
      -1.52256989e-05 -1.01597443e-05 -7.95054893e-06 -3.69605959e-06
      -1.54629424e-06 -1.17881166e-06 -1.40130760e-06 -2.33154196e-06
      -3.93998698e-06 -5.49012202e-06 -6.20192395e-06 -6.52562130e-06
      -6.41945189e-06 -5.86606484e-06 -4.88039859e-06 -4.41940711e-06
      -4.04054481e-06 -3.55242219e-06 -1.34355616e-06 -8.19256400e-07
      1.00975501e-06 6.76806803e-06 6.93548100e-06 7.50102708e-06
      1.23288037e-05 1.33369886e-05 1.33194890e-05 1.27725862e-05
      1.21039893e-05 1.11860063e-05 1.05067902e-05 1.47505207e-05
      -1.27471867e-05 -1.01280457e-04 -3.23955428e-05 2.75820958e-06
      3.32816217e-06 1.57090403e-06 2.34836079e-06 2.29482157e-06
      1.75421189e-06 9.00723990e-07 1.20453126e-06 2.20752008e-06
      9.21975811e-07 1.01117450e-06 2.05868969e-06 -2.31542640e-06
      -7.82493225e-06 -3.44672044e-05 2.27402743e-05 2.08378951e-05
      -6.40266080e-06 -8.24884137e-06 -1.06745010e-05 -1.69438626e-05
      2.80149379e-06 -6.45822502e-06 -5.49005636e-05 -7.29480507e-06
      -5.58234206e-06 -1.09221746e-05 -8.19868637e-06 -6.43890553e-06
      -3.03151819e-06 -3.06286734e-06 -3.37635811e-06 -3.92810171e-06
      -4.47984530e-06 -4.45476599e-06 -4.58643217e-06 -4.63032075e-06
      -4.70639816e-06 -5.86658234e-06 -6.96721418e-06 -6.47871957e-06
      -6.36502864e-06 -6.36502864e-06 -6.36502864e-06 -6.39944665e-06
      -6.53711868e-06 -6.43386466e-06 -6.95175595e-06 -8.22360380e-06
      -9.41376948e-06 -8.91196487e-06 -9.56590793e-06 -8.49894786e-06
      -9.53535528e-06 -1.23820773e-05 -1.48212694e-05 -1.18196085e-05
      -1.39728081e-05 -1.42488989e-05 -1.33421199e-05 -1.42415092e-05
      -1.40458096e-05 -1.42763129e-05 -1.35035325e-05 -1.32520245e-05
      -1.35519504e-05 -1.29002983e-05 -1.28600732e-05 -1.23106620e-05
      -1.19092292e-05 -1.29883019e-05 -4.88620526e-06 3.43479624e-05
      2.23497973e-05 -5.70172524e-05 -1.31401481e-04 -1.28158164e-04
      -1.32832502e-04 -1.00159210e-04 -1.19734805e-05 -1.35735263e-05
      -9.52470145e-06 -8.39253062e-06 -5.27302336e-06 -9.18285150e-06
      -1.25389352e-05 -1.16661286e-05 -1.00274265e-05 -6.26180190e-06
      -2.69163752e-06 -3.11685358e-06 -4.27740224e-06 -5.24191091e-06
      -5.72257704e-06 -6.05849664e-06 -6.30114664e-06 -6.26672863e-06
      -6.01313104e-06 -6.03349281e-06 -5.41321106e-06 -4.18425998e-06
      -2.04996604e-06 1.14581724e-06 3.67213579e-06 5.03171395e-06
      8.03986495e-06 1.13244241e-05 1.22656174e-05 1.23755117e-05
      1.33059984e-05 1.27552221e-05 1.15151533e-05 9.59323552e-06
      -2.62188641e-05 -3.86877473e-05 -1.70534458e-05 -2.75913844e-05
      -1.54867193e-05 -5.89347746e-06 2.79382130e-06 3.96607675e-06
      3.23403242e-06 4.15303793e-06 4.96811390e-06 4.96029270e-06
      4.58402974e-06 4.00740828e-06 3.68127917e-06 3.36757080e-06
      2.70152714e-06 2.20630659e-06 2.26276961e-06 2.26276961e-06
      2.70154055e-06 -8.15368821e-07 2.01452640e-05 6.82681057e-05
      2.76686642e-05 1.21330268e-05 -9.58004966e-06 -1.28886486e-05
      -9.49105470e-06 -2.02393494e-05 -1.86375910e-05 2.46379977e-06
      -4.41376505e-05 -4.04015918e-05 -1.52912580e-05 -1.08553031e-05
      -6.37112953e-06 -4.77035064e-06 -3.81404629e-06 -2.78820971e-06
      -3.41263581e-06 -3.70037924e-06 -4.16428475e-06 -4.52076483e-06
      -4.87040370e-06 -5.59401542e-06 -6.51930532e-06 -6.75329557e-06
      -8.37496373e-06 -8.54705377e-06 -8.02244358e-06 -9.71726786e-06
      -1.00958659e-05 -9.65677100e-06 -1.18939442e-05 -1.41311184e-05
      -1.52248394e-05 -1.49101716e-05 -1.53382789e-05 -1.44324267e-05
      -1.51890727e-05 -1.52533339e-05 -1.55292055e-05 -1.48337331e-05
      -8.04437968e-06 -1.75659152e-05 -1.59766641e-05 -1.62336091e-05
      -1.63961668e-05 -1.50270644e-05 -2.84386442e-05 -2.16005810e-05
      -2.58972141e-05 1.11121881e-06 -2.20990696e-05 -5.98480256e-05
      -2.33659775e-05 4.73929958e-06 -2.52685531e-05 5.25070209e-05
      2.43286358e-05 3.07949404e-06 -9.76229603e-06 -2.91116012e-05
      -2.92036020e-05 -2.40376230e-05 -1.35266973e-05 -1.48848585e-05
      -1.40019001e-05 -1.36565841e-05 -1.10887177e-05 -1.10741703e-05
      -1.28431457e-05 -1.27635258e-05 -1.21959001e-05 -8.11209065e-06
      -4.66375695e-06 -5.50249842e-06 -5.71401597e-06 -5.89207229e-06
      -4.57581336e-06 -4.24206974e-06 -5.06810284e-06 -3.31278216e-06
      -2.65586573e-06 -3.48487242e-06 -1.18858702e-06 1.08643849e-06
      3.98251495e-06 5.07524328e-06 6.68462053e-06 8.52471021e-06
      9.72072576e-06 1.14795857e-05 1.23693235e-05 1.25836641e-05
      -1.18431808e-05 -5.21729198e-05 -3.16249716e-05 -2.97297538e-05
      -7.72732164e-05 -4.70974264e-05 1.23436701e-06 -4.50074452e-07
      4.41340217e-06 5.23287235e-06 4.32338311e-06 3.33946400e-06
      3.21673178e-06 4.13505040e-06 5.16329965e-06 5.26988651e-06
      4.96941720e-06 4.56375119e-06 4.55034615e-06 4.31085255e-06
      3.69072404e-06 3.10605060e-06 2.87005219e-06 2.63266998e-06
      2.69724615e-06 2.92147683e-06 4.76142122e-06 1.77893435e-05
      6.04020315e-05 7.87270110e-05 3.14247554e-05 -9.65237086e-06
      -1.25422621e-05 -1.39841432e-05 -1.24636235e-05 -1.12136677e-05
      -1.26200539e-04 -1.44912090e-04 -3.37851707e-05 -1.21829344e-05
      -1.07514297e-05 -8.49526168e-06 -5.97895496e-06 -1.44204159e-06
      -1.17816637e-06 -2.36590949e-06 -4.36682694e-06 -3.93308164e-06
      -6.19168486e-06 -6.02347609e-06 -7.23154926e-06 -9.98061296e-06
      -1.28494703e-05 -1.30491253e-05 -1.25177485e-05 -1.40766933e-05
      -1.41376349e-05 -1.44971191e-05 -1.58027287e-05 -1.55424605e-05
      -1.58410585e-05 -1.58563744e-05 -4.85159126e-06 -1.45512931e-05
      -1.94807453e-05 -1.86097914e-05 -4.00123754e-05 4.42725432e-05
      5.48140197e-05 -1.23222097e-04 -7.37299997e-05 -5.89804476e-05
      6.44452541e-07 -1.41429555e-05 -1.22718440e-04 -5.08485900e-05
      -1.54720808e-04 -5.30198231e-05 4.08473643e-05 -3.65972628e-05
      -1.89361253e-06 7.90277682e-06 -5.41922373e-06 -2.73573824e-06
      -1.38631167e-05 -1.46075827e-05 -1.44771975e-05 -1.65898837e-05
      -1.68970091e-05 -1.67504149e-05 -1.65696474e-05 -1.65836791e-05
      -1.60970358e-05 -1.46894918e-05 -1.49431462e-05 -1.44338901e-05
      -1.20612704e-05 -1.29603168e-05 -1.29247928e-05 -1.04812498e-05
      -9.26080702e-06 -8.12246435e-06 -4.85395913e-06 -2.14977968e-06
      3.36903724e-07 9.93044182e-07 1.24340346e-07 1.80718348e-06
      2.16281251e-06 1.62967490e-06 3.44519276e-06 4.14685155e-06
      4.70989107e-06 7.55718020e-06 8.26985706e-06 9.74369414e-06
      4.24690188e-06 -8.69641553e-06 -8.54117661e-06 -2.43488430e-05
      -3.12980374e-05 -7.63801945e-05 -2.71613844e-05 6.17150044e-06
      1.81232372e-06 4.89094691e-06 8.69250380e-06 7.96143104e-06
      6.03813533e-06 3.71444389e-06 3.28198121e-06 3.21673178e-06
      3.21673178e-06 3.99529836e-06 5.21791208e-06 5.34330820e-06
      5.28916962e-06 4.90207867e-06 4.65304129e-06 4.65304129e-06
      4.50027846e-06 4.23141591e-06 4.06049776e-06 4.02262685e-06
      4.06469690e-06 4.07254265e-06 3.80368033e-06 4.44803618e-06
      6.94593336e-06 1.64994490e-05 -6.13478551e-06 4.24571999e-06
      1.97006611e-05 -3.04997729e-06 -1.15017901e-05 -1.28150859e-05
      -2.69133234e-05 -1.79406434e-05 1.10055371e-05 -3.85173553e-06
      -1.39121503e-05 -9.82295387e-06 -9.19327340e-06 -7.18215824e-06
      -6.20667515e-06 -7.74414639e-06 -8.79025538e-06 -9.49140485e-06
      -1.06341995e-05 -1.05308436e-05 -1.18926373e-05 -1.33892909e-05
      -1.37752013e-05 -1.39810909e-05 -1.40312477e-05 -1.40854199e-05
      -1.34205584e-05 -1.58715920e-05 -1.63862260e-05 -1.54350928e-05
      3.85650623e-07 3.45727931e-05 6.44807733e-05 4.53380380e-05
      -2.08108486e-05 2.41390153e-05 -1.01024649e-04 -2.80770455e-05
      1.88546437e-05 -4.40011536e-05 -3.71877068e-05 -4.51508786e-05
      -1.55481721e-05 -1.68789138e-05 6.82908239e-06 -2.10814342e-05
      -2.73878486e-05 -2.03376840e-05 -1.31517154e-05 -1.63947025e-05
      -1.73384633e-05 -1.59514930e-05 -1.71367192e-05 -1.69810846e-05
      -1.71288921e-05 -1.70430339e-05 -1.71369211e-05 -1.56121205e-05
      -1.66729096e-05 -1.75945406e-05 -1.75945406e-05 -1.74568686e-05
      -1.75708028e-05 -1.21318390e-05 -1.24036696e-05 -1.03087632e-05
      -9.16956833e-06 -9.87601561e-06 -9.94323182e-06 -7.64835841e-06
      -6.64026038e-06 -3.63760364e-06 -1.43944320e-07 9.85092356e-07
      1.40692157e-06 2.03912009e-06 2.33940227e-06 2.75530192e-06
      3.42493399e-06 6.74561761e-07 -2.85252681e-05 -5.70361262e-05
      -4.52388922e-05 -5.99572377e-05 -2.44416751e-05 1.03370032e-04
      1.35660404e-04 3.88230183e-05 -2.42663918e-05 9.96224935e-06
      7.97890971e-06 5.12376255e-06 7.86942019e-06 1.02246067e-05
      1.00752695e-05 9.17218767e-06 7.20949902e-06 5.09003166e-06
      3.97125996e-06 3.30323428e-06 3.21673178e-06 2.99646672e-06
      1.83640418e-06 3.79466428e-06 5.19910236e-06 5.34330820e-06
      5.34330820e-06 5.31894602e-06 5.28916962e-06 4.77214599e-06
      4.65304129e-06 4.64081995e-06 4.62859907e-06 4.63470951e-06
      4.63470951e-06 4.62859907e-06 4.60415686e-06 4.57360466e-06
      4.59804642e-06 2.33444234e-06 -1.10798464e-06 5.10182363e-05
      4.84857480e-07 -3.72280483e-05 1.15235764e-06 -7.56050804e-06
      -1.23529289e-05 -1.28242373e-05 3.20628573e-07 -4.81438183e-05
      -1.31365759e-05 -1.89028869e-05 -1.10218862e-05 -1.10369365e-05
      -1.11880590e-05 -1.10128003e-05 -1.13843525e-05 -1.12197258e-05
      -1.05972449e-05 -1.13036149e-05 -1.26531086e-05 -1.36689669e-05
      -1.38917248e-05 -1.74696033e-05 -2.38887405e-05 2.14622141e-05
      2.98440646e-05 -9.93636640e-05 -1.15700226e-04 -9.48988454e-05
      -4.50650768e-05 -1.65098572e-05 -2.22493128e-07 -6.73035811e-06
      -3.15760917e-06 -7.25206610e-06 -9.60895613e-06 -1.72267501e-05
      -1.80112766e-05 -1.91358158e-05 -1.91327945e-05 -1.88139020e-05
      -1.91427353e-05 -1.84275486e-05 -1.71723368e-05 -1.78854989e-05
      -1.57471732e-05 -1.61163516e-05 -1.61513653e-05 -1.27746034e-05
      -1.34638558e-05 -1.36008593e-05 -1.33843896e-05 -1.38112318e-05
      -1.07420783e-05 -1.10382371e-05 -1.08780414e-05 -1.15831281e-05
      -1.09670227e-05 -1.23375758e-05 -1.18820399e-05 -1.25536008e-05
      -1.28442580e-05 -1.09624543e-05 -5.09414785e-05 -2.27291002e-05
      -7.77582391e-05 -1.31511224e-05 -7.89683054e-06 -8.29379587e-06
      -8.94544792e-06 -4.33383957e-06 -1.66805785e-06 -1.17625370e-06
      6.28372561e-07 9.97563234e-07 2.06705249e-06 9.52296887e-07
      -7.77486275e-06 -5.95154197e-05 -1.36424438e-04 -9.26699795e-05
      -3.36207595e-05 -5.34882638e-05 -3.00138454e-05 3.80078491e-05
      2.20539659e-05 9.52021765e-06 8.39302083e-06 9.64920127e-06
      9.52530081e-06 9.38291396e-06 9.49449986e-06 9.16679346e-06
      8.32904971e-06 5.25585801e-06 4.06906429e-06 3.37215829e-06
      3.23784593e-06 3.21673178e-06 3.21673178e-06 2.99466319e-06
      6.27959764e-07</_></support_vectors>
  <uncompressed_sv_total>22</uncompressed_sv_total>
  <uncompressed_support_vectors>
    <_>
      255. 255. 255. 255. 255. 255. 255. 253. 246. 132. 19. 1. 4. 77.
      190. 255. 255. 255. 255. 255. 255. 255. 255. 255. 255. 255. 255.
      255. 247. 165. 0. 0. 0. 0. 0. 0. 0. 0. 0. 0. 0. 0. 0. 0. 0. 1. 17.
      47. 131. 94. 138. 194. 238. 253. 254. 253. 254. 254. 255. 255.
      255. 255. 255. 255. 255. 255. 255. 255. 255. 255. 255. 255. 255.
      255. 253. 254. 255. 255. 255. 255. 202. 244. 214. 140. 3. 7. 7. 1.
      2. 4. 68. 15. 76. 5. 65. 34. 12. 6. 9. 3. 3. 2. 1. 0. 0. 0. 0. 0.
      0. 0. 0. 0. 0. 0. 0. 0. 0. 0. 0. 0. 255. 255. 255. 255. 255. 255.
      254. 180. 54. 4. 3. 72. 188. 255. 255. 255. 255. 255. 255. 255.
      255. 255. 255. 255. 255. 255. 249. 237. 142. 36. 0. 0. 0. 0. 0. 0.
      0. 0. 0. 0. 0. 0. 0. 0. 0. 0. 0. 0. 0. 0. 0. 19. 30. 139. 215.
      162. 195. 226. 249. 253. 254. 253. 254. 255. 255. 255. 255. 255.
      255. 255. 255. 255. 255. 255. 255. 255. 255. 255. 255. 255. 255.
      255. 255. 227. 159. 178. 148. 64. 90. 208. 252. 226. 253. 218.
      252. 220. 184. 168. 194. 166. 174. 103. 50. 15. 3. 2. 0. 5. 6. 2.
      0. 0. 0. 0. 0. 0. 0. 0. 0. 0. 255. 255. 255. 255. 255. 250. 239.
